tree
version=v3
num_class=1
num_tree_per_iteration=1
label_index=0
max_feature_idx=15
objective=binary sigmoid:1
feature_names=Column_0 Column_1 Column_2 Column_3 Column_4 Column_5 Column_6 Column_7 Column_8 Column_9 Column_10 Column_11 Column_12 Column_13 Column_14 Column_15
feature_infos=[-1.4636521360204457:1.4664507060701979] [-3.7708331985098424:2.8540577561143232] [-1.2014188422607204:0.83234918982816308] [-1.3477943307077911:5.5901290208022374] [-2.1203921788494653:0.47161086990171985] [-1.114052055348812:1.7210655393448131] [-3.3322734345750447:0.30009542122929883] [-0.95625788000931999:3.0929292119981131] [-1.3253408830171578:2.6431768328181224] [-1.587383172825048:2.412015667168756] [-1.0271248885567439:5.9880985895575636] [-1.0845085075882315:7.6085605978957078] [-0.77207919748443399:2.1430338447587367] [-2.5665066767376881:0.38963467699648052] [-1.3387691493601572:2.1176155054755421] [-0.70510164398591368:7.2744870491383749]
tree_sizes=1630 1998 2529 2207 2097 2518 2534 2423 3364 3358 3371 3377 3380 3183 3378 3393 3377 3385 3377 3389 3373 3379 3381 3397 3387 3382 3376 3390 3378 3378 3381 3403 3378 3390 3390 3414 3423 3402 3425

Tree=0
num_leaves=15
num_cat=0
split_feature=3 3 13 13 5 10 5 5 14 14 1 3 1 3
split_gain=394.52 31.658 16.2728 9.55571 7.96458 5.33856 6.79359 5.22884 3.02526 0.367074 0.123775 0.275428 1.42109e-14 3.55271e-15
threshold=-1.0667890552974686 -0.69857524613911515 1.0000000180025095e-35 1.0000000180025095e-35 -0.86289298915222956 -0.80917055514391312 -0.16901285711760364 1.5678159396316445 -1.0764507284482925 -1.3381787853220957 0.82518490126067234 0.28978813633857042 -0.25135987886575456 -0.078425672819783118
decision_type=2 2 2 2 2 2 2 2 2 2 2 2 2 2
left_child=3 2 -2 -1 -3 6 -6 8 -4 -7 12 -12 -11 -14
right_child=1 4 7 -5 5 9 -8 -9 -10 10 11 -13 13 -15
leaf_value=1.1027874805368101 1.5889063134692956 1.7467371033824404 1.8567677112076042 1.3111241232221609 1.9361340512782141 1.894466722741144 1.7187392936935 1.9361340512782141 1.7139082990805063 1.9361340512782141 1.9361340512782141 1.8944667227411438 1.9361340512782139 1.9361340512782139
leaf_weight=5.1599181890487671 4.3199315071105948 2.639958143234252 2.5199600458145133 3.8399391174316388 2.9999524354934692 2.3999619483947674 2.7599562406539908 2.8799543380737305 3.5999429225921622 33.959461569786065 4.6799257993698111 2.3999619483947754 2.6399581432342556 13.559785008430493
leaf_count=43 36 22 21 32 25 20 23 24 30 283 39 20 22 113
internal_value=1.81993 1.88943 1.74844 1.19168 1.91703 1.9239 1.83197 1.82502 1.77273 1.93278 1.93439 1.92201 1.93613 1.93613
internal_weight=0 81.3587 13.3198 8.99986 68.0389 65.399 5.75991 8.99986 6.1199 59.6391 57.2391 7.07989 50.1592 16.1997
internal_count=753 678 111 75 567 545 48 75 51 497 477 59 418 135
shrinkage=1


Tree=1
num_leaves=18
num_cat=0
split_feature=3 5 3 12 3 13 10 9 10 7 9 1 10 10 3 15 1
split_gain=228.545 22.0269 11.0281 7.22668 5.94601 7.36057 1.92473 1.74147 1.94171 0.235111 0.230875 0.114159 0.313931 0.000135342 1.51377e-05 2.08961e-07 1.42109e-14
threshold=-1.0086500327987811 -0.86289298915222956 -0.60167687530796954 1.3838898233412442 -1.1830671002948432 1.0000000180025095e-35 -0.85130839293706029 -1.0000000180025095e-35 -0.36309068609231993 -0.38937168712827924 1.0000000180025095e-35 0.82518490126067234 -0.29915741495788967 -0.76412665957192816 0.17351009134119558 -0.67362717654800475 -0.33417101579855663
decision_type=2 2 2 2 2 2 2 2 2 2 2 2 2 2 2 2 2
left_child=4 -2 3 7 10 -6 -4 8 -3 -9 -1 13 -13 -8 -14 -15 -17
right_child=1 2 6 -5 5 -7 11 9 -10 -11 -12 12 14 15 -16 16 -18
leaf_value=-0.39642236443507484 -0.13602423391839011 0.077016630175825496 0.040037669631639253 -0.089685927437328006 -0.38394623989458754 -0.18495276810007025 0.11521888658519658 0.1164593648832339 -0.048245023265609692 0.074382475439514456 -0.4310414516486944 0.069657596192663304 0.11460177300329705 0.11445765786485458 0.11495017524828562 0.11442605258068402 0.11442605258068382
leaf_weight=3.790113240480423 4.7275688722729674 2.5273029580712318 3.9357488453388205 4.830318570137023 3.8848160207271576 3.5642069652676565 2.278537392616264 3.0023580789566031 2.4248450398445121 2.3811627328395844 3.9175805449485779 2.2243669927120209 2.7787260562181464 2.2070401459932247 2.2624860554933548 25.892003625631325 14.213057309389134
leaf_count=21 37 21 33 39 22 24 20 25 20 20 22 20 25 20 20 235 129
internal_value=0 0.0729783 0.0869031 0.0112894 -0.352444 -0.288732 0.107457 0.0584797 0.0156816 0.0978485 -0.414018 0.112574 0.100951 0.114468 0.114758 0.114428 0.114426
internal_weight=0 75.6855 70.958 15.166 15.1567 7.44902 55.792 10.3357 4.95215 5.38352 7.70769 51.8562 7.26558 44.5906 5.04121 42.3121 40.1051
internal_count=753 664 627 125 89 46 502 86 41 45 43 469 65 404 45 384 364
shrinkage=0.1


Tree=2
num_leaves=23
num_cat=0
split_feature=3 3 8 13 3 10 1 7 5 1 3 15 13 10 3 10 15 0 1 5 10 14
split_gain=167.918 9.92873 12.8616 9.05281 12.3915 8.86808 1.51649 1.47083 1.44869 0.638351 1.12923 0.37121 0.00258577 0.00190119 0.00047543 5.70767e-09 4.90274e-12 7.10543e-15 3.55271e-15 3.55271e-15 1.77636e-15 1.77636e-15
threshold=-0.87299231363517737 -0.25284274031584525 -1.0872298200670409 1.0000000180025095e-35 -1.1636874261286143 -0.79318723736030561 0.24550694273105786 -0.71330665448887387 -0.83735138920003471 0.82518490126067234 0.28978813633857042 -0.61100272071793849 1.0000000180025095e-35 -0.81788872848042626 -0.67919557197288605 -0.72344185066819977 -0.58147512755453945 1.0000000180025095e-35 -1.0000000180025095e-35 -0.10515885723711658 0.24427538968476789 0.73891868858992915
decision_type=2 2 2 2 2 2 2 2 2 2 2 2 2 2 2 2 2 2 2 2 2 2
left_child=3 2 -2 6 -5 -4 -1 -7 -3 13 -11 12 -9 -10 -14 -15 -17 19 -19 20 21 -18
right_child=1 8 5 4 -6 7 -8 11 9 10 -12 -13 14 15 -16 16 17 18 -20 -21 -22 -23
leaf_value=-0.34612910422745224 -0.14352888558038254 0.025744943184268572 -0.10960542470964928 -0.3039983498395662 -0.074208936741110718 0.034104308184442073 -0.2724904879978462 0.11870263565431759 0.11548741185840028 0.11349259487009145 0.019635777170415706 0.070666518568379452 0.11596254621944127 0.11286092626826492 0.11419028603528079 0.11286612125931683 0.11286628181632291 0.11286628181632291 0.11286628181632259 0.11286628181632288 0.11286628181632286 0.11286628181632286
leaf_weight=4.6877139508724213 3.8285501003265408 2.210804618895053 2.6509598493576094 4.0564422011375427 5.567845031619072 3.6734744533896491 6.9321127682924271 2.846440516412259 2.9937324821948996 3.23280906677246 2.1241791695356369 2.2388557642698173 2.9357528388500231 2.1203335002064696 3.1248353198170653 2.0199953913688651 3.8380287289619428 13.736102819442744 2.7270204126834932 3.939029484987258 4.2420317530632019 3.8380287289619446
leaf_count=23 31 19 22 20 39 32 33 22 26 31 20 20 25 21 29 20 38 136 27 39 42 38
internal_value=0 0.0791118 0.0224692 -0.242788 -0.171061 0.0588471 -0.302198 0.0889807 0.104768 0.108667 0.076276 0.107067 0.116216 0.113065 0.115049 0.112866 0.112866 0.112866 0.112866 0.112866 0.112866 0.112866
internal_weight=0 68.321 21.2989 21.2441 9.62429 17.4703 11.6198 14.8194 47.0221 44.8113 5.35699 11.1459 8.90703 39.4543 6.06059 36.4606 34.3402 32.3202 16.4631 15.8571 11.9181 7.67606
internal_count=753 638 181 115 59 150 56 128 457 438 51 96 76 387 54 361 340 320 163 157 118 76
shrinkage=0.1


Tree=3
num_leaves=20
num_cat=0
split_feature=3 3 8 10 3 14 5 5 7 1 1 15 7 13 10 3 10 15 0
split_gain=129.088 9.45765 9.98364 7.41603 6.70321 2.9225 2.08544 1.43033 1.42415 0.660078 1.17286 0.376051 0.288755 0.00183024 0.00135359 0.000336575 4.05627e-09 3.35376e-12 7.10543e-15
threshold=-0.87299231363517737 -0.25284274031584525 -1.0872298200670409 -0.79318723736030561 -1.0667890552974686 -1.3047248231652939 -0.55639378972589171 -0.83735138920003471 -0.71330665448887387 0.82518490126067234 1.2392405859246829 -0.61100272071793849 -0.71330665448887387 1.0000000180025095e-35 -0.81788872848042626 -0.67919557197288605 -0.72344185066819977 -0.58147512755453945 1.0000000180025095e-35
decision_type=2 2 2 2 2 2 2 2 2 2 2 2 2 2 2 2 2 2 2
left_child=4 2 -2 -4 6 -6 -1 -3 -5 14 -11 13 -8 -10 -9 -15 -16 -18 -19
right_child=1 7 3 8 5 -7 12 9 11 10 -12 -13 -14 15 16 -17 17 18 -20
leaf_value=-0.18310746931405256 -0.11645110347645711 0.023631579755351198 -0.090951109330574362 0.031513662099755917 -0.17084607128618912 -0.030377635819067429 -0.24301776022824445 0.11380216521717992 0.11662462819899395 0.014059304763989366 0.11240281122585533 0.067221354294328059 -0.27562682006742412 0.11422044933596892 0.11148833835014944 0.11266345225548498 0.11149291823757744 0.11149305698536559 0.11149305698536567
leaf_weight=5.9386177659034773 4.2227834463119533 2.1698968186974517 2.8625412285327956 3.5828302726149603 3.3212396129965782 2.6733495667576781 6.6259259283542669 2.7468915134668341 2.6190909221768397 2.0205911770462981 3.0331026166677475 2.1242929324507598 4.6012589931488002 2.6948093399405497 1.9409645497798873 2.8638169988989812 1.849123179912566 14.51576130837203 15.070503778755663
leaf_count=27 31 19 22 32 20 20 28 26 22 20 31 20 20 25 21 29 20 157 163
internal_value=0 0.076091 0.0209587 0.055606 -0.19924 -0.108203 -0.231032 0.102763 0.0858207 0.106933 0.0730827 0.104708 -0.256382 0.114445 0.111668 0.113418 0.111493 0.111493 0.111493
internal_weight=0 64.317 20.9702 16.7474 23.1604 5.99459 17.1658 43.3468 13.8848 41.1769 5.05369 10.302 11.2272 8.17772 36.1232 5.55863 33.3764 31.4354 29.5863
internal_count=753 638 181 150 115 40 75 457 128 438 51 96 48 76 387 54 361 340 320
shrinkage=0.1


Tree=4
num_leaves=19
num_cat=0
split_feature=3 3 8 5 13 3 5 10 5 10 1 10 1 10 10 15 2 3
split_gain=102.716 8.98983 7.90679 6.8317 5.65526 6.76869 1.41304 1.33278 1.26118 1.02136 0.684202 1.21751 0.00226644 0.00096793 2.9063e-09 2.46558e-12 7.10543e-15 1.77636e-15
threshold=-0.87299231363517737 -0.25284274031584525 -1.0872298200670409 1.6827531394165212 1.0000000180025095e-35 -1.1636874261286143 -0.83735138920003471 -0.50694054614478812 -0.55639378972589171 0.10042552963229968 0.82518490126067234 -0.24975443271764808 0.16269580579825577 -0.81788872848042626 -0.72344185066819977 -0.58147512755453945 -1.0000000180025095e-35 0.52234422633332001
decision_type=2 2 2 2 2 2 2 2 2 2 2 2 2 2 2 2 2 2
left_child=4 2 -2 8 7 -6 -3 -1 9 12 13 -12 -4 -8 -15 -16 17 -17
right_child=1 6 3 -5 5 -7 10 -9 -10 -11 11 -13 -14 14 15 16 -18 -19
leaf_value=-0.23703378334801301 -0.096774574416750025 0.02165972994760797 0.11356588576939362 -0.11119812372703269 -0.2060954302177227 -0.048020674828209847 0.11232070758850339 -0.17074554556898333 0.025563283888756339 0.045865176515960351 0.008543252671305783 0.11147529269556067 0.11704066430569325 0.1102763403684866 0.11028039337102812 0.11028051765636636 0.11028051765636637 0.11028051765636637
leaf_weight=8.6681896001100522 4.5534231513738659 2.13272601366043 3.7944129556417483 2.1997299417853347 4.8064609318971634 6.2068684622645378 2.5165884122252455 4.6656527519226083 3.3970427662134162 2.9527754634618759 1.9266840890049932 2.8474688902497283 3.714882604777813 1.7745696082711209 1.6906085908412958 7.6078149676322955 14.539379715919496 4.9028140902519226
leaf_count=36 31 19 37 20 20 39 26 20 33 29 20 31 31 21 20 90 172 58
internal_value=0 0.0731728 0.0195377 0.0525176 -0.170038 -0.117008 0.100854 -0.213839 0.0785027 0.0956921 0.105321 0.0699355 0.115285 0.110436 0.11028 0.110281 0.110281 0.110281
internal_weight=0 60.5509 20.6123 16.0588 24.3472 11.0133 39.9387 13.3338 13.8591 10.4621 37.8059 4.77415 7.5093 33.0318 30.5152 28.7406 27.05 12.5106
internal_count=753 638 181 150 115 59 457 56 130 97 438 51 68 387 361 340 320 148
shrinkage=0.1


Tree=5
num_leaves=23
num_cat=0
split_feature=3 5 3 3 9 11 1 10 14 5 8 7 1 3 3 3 10 15 14 10 1 1
split_gain=83.6179 8.63396 7.29917 4.91163 4.12457 5.22099 2.52602 2.24668 2.08067 1.50524 0.284376 0.17852 0.112932 0.376206 0.00446571 0.000747045 3.19236e-05 2.80092e-05 4.01329e-06 4.9738e-14 3.55271e-15 3.55271e-15
threshold=-0.87299231363517737 -0.86289298915222956 -0.60167687530796954 -1.0667890552974686 0.25234029357210191 -0.67745209709334853 0.24550694273105786 -0.85130839293706029 -1.3249939884720623 -0.55639378972589171 0.18269584900024877 -0.71330665448887387 0.82518490126067234 0.28978813633857042 -0.25284274031584525 -0.15594436948469961 -0.74669031289890164 -0.5662246124042124 -0.62659333144565033 -0.61591771285120334 0.32831807966385995 1.0000000180025095e-35
decision_type=2 2 2 2 2 2 2 2 2 2 2 2 2 2 2 2 2 2 2 2 2 2
left_child=3 -2 4 9 5 -3 -7 -4 -5 -1 -6 -11 14 15 -9 -14 -16 -18 -19 -20 21 -21
right_child=1 2 7 8 10 6 -8 12 -10 11 -12 -13 13 -15 16 -17 17 18 19 20 -22 -23
leaf_value=-0.13691620588993555 -0.083051058864701863 0.081303253492856234 0.020467962509628707 -0.125855328906438 0.11432373624433537 -0.1481424164925422 -0.0089226405624838814 0.11315770956340657 -0.013570444890028425 -0.18683623313535958 0.063333875988774199 -0.21172733197188612 0.11314082853873964 0.057088440709724179 0.10968618169289555 0.11041089802920212 0.1096079806704998 0.1093689209641632 0.10920707644222843 0.10920705844498449 0.10920705844498453 0.10920705844498453
leaf_weight=6.3751198500394866 3.4502119347453108 2.8028321340680113 3.231484927237033 3.7093739360570908 2.4014273583888999 2.989611715078353 2.3104979917407036 3.3001734912395468 2.9729524552822104 6.9483325779438054 2.0086320415139198 4.9227577894926036 1.8411305248737333 1.8381904885172842 1.7587740942835797 2.2004342749714842 1.9850771948695207 1.6395715475082457 1.6984110102057517 17.138483360409744 2.0844101384282103 2.3932116404175749
leaf_count=27 26 25 33 19 23 24 18 34 21 28 20 20 19 20 22 26 25 21 22 222 27 31
internal_value=0 0.070284 0.08015 -0.149248 0.0132766 -0.0290789 -0.0874518 0.100505 -0.0759 -0.17611 0.0910996 -0.197158 0.107333 0.0945955 0.109674 0.111655 0.109273 0.109246 0.109218 0.109207 0.109207 0.109207
internal_weight=0 57.0726 53.6224 24.9285 12.513 8.10294 5.30011 41.1094 6.68233 18.2462 4.41006 11.8711 37.8779 5.87976 31.9981 4.04156 28.6979 26.9392 24.9541 23.3145 21.6161 19.5317
internal_count=753 638 612 115 110 67 42 502 40 75 43 48 469 65 404 45 370 348 323 302 280 253
shrinkage=0.1


Tree=6
num_leaves=23
num_cat=0
split_feature=3 3 8 10 2 5 14 5 1 14 11 14 1 7 5 10 10 10 15 14 0 10
split_gain=68.9071 8.35269 5.65441 5.80804 4.50872 2.20252 2.07263 1.92378 1.46342 2.07984 2.53573 1.43593 0.23004 0.305727 0.00144174 0.00121478 0.000692493 1.6059e-05 3.01559e-06 1.13971e-10 3.55271e-15 1.77636e-15
threshold=-0.87299231363517737 -0.078425672819783118 -1.0872298200670409 -0.79318723736030561 1.0000000180025095e-35 -0.73518498939125543 -1.3381787853220957 -1.0000000180025095e-35 0.16269580579825577 0.049176704121748259 -0.40148164930020763 -1.0117074722742465 0.82518490126067234 -0.38937168712827924 -0.83735138920003471 -0.84549627737938493 2.0779978481313832 -0.72344185066819977 -0.54188868397283951 -0.49080960269157209 -1.0000000180025095e-35 0.78916122321684445
decision_type=2 2 2 2 2 2 2 2 2 2 2 2 2 2 2 2 2 2 2 2 2 2
left_child=4 2 -2 -4 6 -6 -1 -7 9 10 -5 -3 15 -14 -10 -13 17 -17 -19 -20 -21 -22
right_child=1 11 3 8 5 7 -8 -9 14 -11 -12 12 13 -15 -16 16 -18 18 19 20 21 -23
leaf_value=-0.11710881597673405 -0.073119667300830374 0.022187677276936723 -0.077883832898648295 -0.077311457556670807 -0.21038066874059902 -0.093630248707561065 -0.015647424824954365 -0.17756817528250346 0.11377001193789789 0.11123587099556878 0.072401068291359449 0.11101541661733594 0.050524426131937319 0.11040791610047296 0.11067917091307417 0.10860046764118972 0.11051963645878322 0.10840496000537925 0.10825360776967992 0.10825454035419058 0.10825454035419135 0.10825454035419074
leaf_weight=4.507584422826767 5.0608178228139904 2.2235526815056792 3.0155616775155112 2.0910606011748349 6.1008566766977337 5.4910637438297298 3.6385323107242602 5.4312032163143114 3.0275965854525566 2.970514677464962 2.4649172127246786 1.9463311433792174 1.6737646833062174 1.7376272752881039 3.009071946144104 1.5217697247862911 1.4771381393074978 1.4255492836237085 1.4086038023233545 9.086367130279557 7.7480649948119709 1.9722347259521482
leaf_count=20 35 25 22 21 27 24 21 23 30 34 26 22 20 21 35 21 19 20 20 129 110 28
internal_value=0 0.0674535 0.0194001 0.0476427 -0.132974 -0.162252 -0.0717902 -0.135369 0.0755516 0.046134 0.0036874 0.0997259 0.105473 0.0810267 0.112229 0.10861 0.10842 0.108286 0.108264 0.108254 0.108255 0.108255
internal_weight=0 53.8605 21.6395 16.5787 25.1692 17.0231 8.14612 10.9223 13.5632 7.52649 4.55598 32.221 29.9975 3.41139 6.03667 26.5861 24.6397 23.1626 21.6408 20.2153 18.8067 9.7203
internal_count=753 638 203 168 115 74 41 47 146 81 47 435 410 41 65 369 347 328 307 287 267 138
shrinkage=0.1


Tree=7
num_leaves=22
num_cat=0
split_feature=3 3 8 10 3 2 5 1 14 11 14 1 0 0 5 10 10 10 15 14 0
split_gain=56.99 7.91642 4.61112 4.91136 4.57587 4.75752 1.58726 1.43196 1.92872 2.05759 1.4264 0.245488 0.309691 0.151145 0.00103907 0.000874283 0.000514844 1.16654e-05 2.19535e-06 8.07248e-11 3.55271e-15
threshold=-0.87299231363517737 -0.078425672819783118 -1.0872298200670409 -0.79318723736030561 -1.0667890552974686 -1.0000000180025095e-35 -0.55639378972589171 0.16269580579825577 0.049176704121748259 -0.40148164930020763 -1.0117074722742465 0.82518490126067234 -1.0000000180025095e-35 1.0000000180025095e-35 -0.83735138920003471 -0.84549627737938493 2.0779978481313832 -0.72344185066819977 -0.54188868397283951 -0.49080960269157209 1.1734404218611338
decision_type=2 2 2 2 2 2 2 2 2 2 2 2 2 2 2 2 2 2 2 2 2
left_child=4 2 -2 -4 6 -6 -1 8 9 -5 -3 15 -13 -8 -9 -12 17 -17 -19 -20 -21
right_child=1 10 3 7 5 -7 13 14 -10 -11 11 12 -14 -15 -16 16 -18 18 19 20 -22
leaf_value=-0.10606518956747371 -0.062816507204467159 0.020340801862589603 -0.066474425518419838 -0.065448135286484063 0.027983650254480033 -0.1344155693267351 -0.15732672036251738 0.11230674661900171 0.11006328667656969 0.069156160619245247 0.10986027909748337 0.047442480688702743 0.1097331808566183 -0.18019762405329823 0.10956332264467797 0.10771637411228036 0.10945118029882546 0.10754202323590141 0.10740678777369383 0.1074076098206688 0.10740760982066855
leaf_weight=6.4670462906360671 5.2885644957423237 2.185005925595763 3.1707591339945802 2.2157621160149574 3.6805183291435242 3.5379057079553595 6.271166980266571 2.7733428776264191 2.7150004059076309 2.3296439424157107 1.7786813154816687 1.6149080693721773 1.5781029313802708 5.358594074845314 2.7490292266011238 1.3876773193478715 1.3489493802189816 1.2997110560536551 1.2840922027826476 14.511648058891263 2.6326441168785086
leaf_count=27 35 25 22 21 22 18 26 30 34 26 22 21 20 22 35 21 19 20 20 226 41
internal_value=0 0.064692 0.018105 0.0449303 -0.118929 -0.0516117 -0.14578 0.0725642 0.0433741 0.00354022 0.0981005 0.104293 0.0782288 -0.167865 0.110941 0.107726 0.107557 0.107436 0.107416 0.107408 0.107408
internal_weight=0 50.8635 21.2421 15.9535 25.3152 7.21842 18.0968 12.7828 7.26041 4.54541 29.6214 27.4364 3.19301 11.6298 5.52237 24.2434 22.4647 21.1158 19.7281 18.4284 17.1443
internal_count=753 638 203 168 115 40 75 146 81 47 435 410 41 48 65 369 347 328 307 287 267
shrinkage=0.1


Tree=8
num_leaves=31
num_cat=0
split_feature=3 3 5 5 12 10 10 5 5 1 8 9 11 1 3 8 14 15 14 3 1 3 1 5 10 10 10 14 15 15
split_gain=48.1969 8.99872 6.78328 6.53958 6.31223 5.62546 5.37153 9.44649 1.50596 0.72196 1.8732 0.141391 0.0905502 0.444702 0.0178279 0.00867422 0.00145073 0.00109974 0.000633084 0.00051459 0.000369637 2.86775e-05 1.54743e-06 5.52996e-07 7.76434e-09 3.72162e-09 1.34454e-09 5.35727e-10 7.62865e-11 6.12772e-11
threshold=-0.69857524613911515 -1.0667890552974686 1.5678159396316445 -0.87992072245369279 -0.52915311063083637 -0.55198444171677308 -0.80917055514391312 1.1336087404443325 -0.55639378972589171 -1.0794712481937749 0.65891797490048254 0.092364339972349691 0.28844447018264469 0.82518490126067234 -0.25284274031584525 -0.92848911143362967 -0.75962202802210987 -0.48737620428656436 -0.85506421417533884 0.19288976550742473 0.82518490126067234 -0.039666324487324864 0.16269580579825577 -0.73518498939125543 1.0448943077545658 0.94463531438466353 -0.5665147306109618 1.3497486799705947 -0.093134163698323905 0.13367668928207127
decision_type=2 2 2 2 2 2 2 2 2 2 2 2 2 2 2 2 2 2 2 2 2 2 2 2 2 2 2 2 2 2
left_child=1 8 4 -2 5 -3 7 -5 -1 10 19 -10 14 17 15 -11 -17 -14 -16 -8 21 -20 25 -19 27 26 -23 29 -28 -25
right_child=3 2 -4 6 -6 -7 9 -9 11 12 -12 -13 13 -15 18 16 -18 23 20 -21 -22 22 -24 24 -26 -27 28 -29 -30 -31
leaf_value=-0.095483008276412498 -0.11715687689068469 -0.11439274827696906 0.11605013774831258 0.11066827369753476 -0.1550966713877508 0.05565344901910764 0.10937152349702364 -0.17986167712769174 -0.16587180417223479 0.11936684779804894 -0.033771552172493093 -0.14329629539284594 0.10970850127283022 0.051610160003406826 0.10912671416407899 0.11264098332696765 0.10893592048109019 0.10672553774964617 0.10717198294095698 0.10665129593737399 0.10849604402439372 0.10664923274951404 0.10677408902268354 0.10665230748319028 0.10664312245847421 0.10664640681272966 0.10665226936852967 0.10665039771820782 0.10665318508348612 0.10665318761620997
leaf_weight=6.4652044177055386 1.6518979817628849 3.110548391938206 2.6497618108987799 2.5685850717127314 4.5006375238299379 5.1940491944551468 1.5136825218796723 1.9832805320620535 6.3560491204261762 1.8680660501122472 1.3933344073593614 4.9230383485555649 1.428974051028489 1.7381059117615212 1.4909889325499541 2.8542695306241512 1.6781437359750278 1.1792342327535132 1.2909497022628773 1.2864608131349085 1.3436689861118782 1.1691919974982692 1.1841544099152086 1.2281496562063705 1.1682483442127702 1.2856303639709947 1.1696605235338164 1.1693710088729856 4.0943059101700889 2.2226238548755646
leaf_count=27 11 20 25 32 29 37 21 16 27 16 20 21 20 23 21 31 23 20 21 22 19 20 20 21 20 22 20 20 70 38
internal_value=0 -0.0853737 -0.0295882 0.0776553 -0.0597249 -0.00803861 0.0860556 -0.0159177 -0.133962 0.0998058 0.060976 -0.156018 0.105314 0.0976509 0.109311 0.113633 0.111269 0.107181 0.107188 0.108122 0.106937 0.106732 0.106668 0.106663 0.10665 0.106651 0.106652 0.106652 0.106653 0.106653
internal_weight=0 33.1993 15.455 39.961 12.8052 8.3046 38.3091 4.55187 17.7443 33.7572 4.19348 11.2791 29.5637 10.1347 19.429 6.40048 4.53241 8.3966 13.0286 2.80014 11.5376 10.1939 8.90294 6.96763 5.78839 7.71879 6.43316 4.62014 5.26397 3.45077
internal_count=753 186 111 567 86 57 556 48 75 508 63 48 445 162 283 70 54 139 213 43 192 173 152 119 99 132 110 79 90 59
shrinkage=0.1


Tree=9
num_leaves=31
num_cat=0
split_feature=3 3 5 11 10 5 8 0 3 5 1 8 8 1 3 3 9 8 3 14 3 1 10 15 10 1 5 11 10 10
split_gain=40.8361 7.98875 5.57989 5.28007 4.97099 7.32278 4.37096 1.73226 1.54929 1.80943 0.73584 1.71747 0.105637 0.101586 0.523382 0.0110754 0.00324676 0.00280547 0.000377373 0.000370141 2.74112e-05 1.1746e-06 2.56495e-08 5.32014e-09 1.27786e-09 1.27365e-11 2.21156e-12 3.05667e-12 1.68088e-12 2.17604e-13
threshold=-0.69857524613911515 -1.0086500327987811 -0.87992072245369279 -0.81543732098991895 -0.80917055514391312 1.1336087404443325 -0.7697484028002185 1.0000000180025095e-35 -1.1830671002948432 -0.73518498939125543 -1.0794712481937749 0.65891797490048254 -0.13478556826657365 0.82518490126067234 0.28978813633857042 -0.25284274031584525 -0.22758756722715459 -0.92848911143362967 0.19288976550742473 -0.85506421417533884 -0.039666324487324864 0.49394035352946408 1.5955922568443175 -0.41469289803819737 -0.62608891507713549 -0.085737605000150471 -0.70538645611369477 0.21945185823435939 0.026321056271937295 -0.31368770385207839
decision_type=2 2 2 2 2 2 2 2 2 2 2 2 2 2 2 2 2 2 2 2 2 2 2 2 2 2 2 2 2 2
left_child=1 8 -2 -3 5 -4 -5 -8 12 -10 11 18 -1 15 17 16 -12 -15 -6 -17 -21 22 23 -22 -25 26 27 -26 -27 -28
right_child=2 3 4 6 10 -7 7 -9 9 -11 13 -13 -14 14 -16 19 -18 -19 -20 20 21 -23 -24 24 25 28 29 -29 -30 -31
leaf_value=-0.1345407147325155 -0.098037126607848579 0.066857145394271719 0.10957291457951962 -0.1607401714853787 0.10841873725191108 -0.14390006876680414 0.048256565911537624 -0.068138335083554075 -0.13782538842055897 -0.052668124194172952 0.1142742233343854 -0.029515105411852274 -0.15536186540778663 0.11360916147465219 0.041022095898354705 0.10782299972490067 0.10867655008295991 0.10828130141855719 0.10597844804406296 0.10644910269521385 0.10597247296507689 0.10608384019736197 0.1059632160786792 0.10597650324728072 0.10598016822866599 0.10597993936164632 0.10598012184884774 0.10597994874660573 0.10597976165122287 0.10598017233094997
leaf_weight=4.5697211623191833 1.7696274071931828 4.7975962832570067 2.3461956121027461 3.0229204744100544 1.3810571096837554 2.2165234312415123 2.5960797742009172 2.519574947655201 4.4312754422426224 5.7107873857021314 2.4115124233067036 1.4326049908995626 5.2204159051179904 1.6208549328148363 1.4752756953239439 1.236028268933304 1.8168438822031081 2.532591074705123 1.1710506491363046 1.4012077674269754 1.1168286241591019 1.1313656009733666 1.1152893230319012 1.1174989677965665 1.1713505685329448 1.0648279041051609 1.0648567080497748 1.384278532117605 1.0647998675704 4.3127019815146914
leaf_count=20 11 38 32 18 21 16 21 20 19 27 25 20 23 18 20 20 26 38 22 25 21 21 21 21 22 20 20 26 20 81
internal_value=0 -0.0775499 0.0752767 -0.0163536 0.0838954 -0.0135617 -0.0654054 -0.00907054 -0.117267 -0.0898751 0.098229 0.0581109 -0.145643 0.104141 0.092187 0.107284 0.111869 0.11036 0.107299 0.106156 0.106027 0.105986 0.105978 0.105979 0.10598 0.10598 0.10598 0.10598 0.10598 0.10598
internal_weight=0 32.8684 37.3552 12.9362 35.5855 4.56272 8.13858 5.11565 19.9322 10.1421 31.0228 3.98471 9.79014 27.0381 5.62872 21.4094 4.22836 4.15345 2.55211 17.181 15.945 14.5438 13.4124 12.2971 11.1803 10.0628 7.93319 2.55563 2.12963 5.37756
internal_count=753 186 567 97 556 48 59 41 89 46 508 63 43 445 76 369 51 56 43 318 298 273 252 231 210 189 149 48 40 101
shrinkage=0.1


Tree=10
num_leaves=31
num_cat=0
split_feature=3 5 3 13 3 11 8 1 5 1 10 10 3 14 14 3 10 15 14 1 8 14 10 14 10 3 15 1 5 10
split_gain=34.8056 7.15723 7.09791 4.61626 3.83475 3.65679 6.61638 5.77121 2.23585 1.63297 3.29407 1.23525 0.717504 0.391186 0.374341 0.0107451 0.00177983 0.00068412 0.000347199 7.00642e-05 0.000133735 1.62819e-05 4.82312e-06 4.38941e-08 1.62257e-08 5.10759e-09 7.29621e-11 3.26237e-11 1.19282e-12 2.84217e-14
threshold=-0.87299231363517737 -1.0714827220951537 -0.60167687530796954 1.0000000180025095e-35 -1.1830671002948432 -0.67745209709334853 -1.0872298200670409 -0.41698215273135869 -0.73518498939125543 0.82518490126067234 -0.40086943721721052 -0.50694054614478812 1.8692315808862447 -0.59550082544109328 -1.2360458067375066 -0.25284274031584525 -0.81788872848042626 -0.5662246124042124 -0.95955864891217313 -1.0794712481937749 0.34143655763366004 -0.39458026448759481 -0.64497829063958079 -0.14879203664144425 1.5955922568443175 0.018472698011362521 -0.29139086065257486 0.16269580579825577 -0.70538645611369477 0.61189169870774218
decision_type=2 2 2 2 2 2 2 2 2 2 2 2 2 2 2 2 2 2 2 2 2 2 2 2 2 2 2 2 2 2
left_child=3 -2 5 11 -5 13 -7 -8 -6 12 -11 -1 15 -3 -9 -4 -17 -18 -12 20 -19 -21 -23 -24 25 -25 -27 28 -28 -30
right_child=1 2 9 4 8 6 7 14 -10 10 18 -13 -14 -15 -16 16 17 19 -20 21 -22 22 23 24 -26 26 27 -29 29 -31
leaf_value=-0.15894973447536107 -0.17163141826177097 0.11357418559008076 0.11250227991883235 -0.12916711834066338 -0.057931889046731855 -0.16909266471851947 -0.11346225712556529 0.11514416550277982 0.048702659003057279 -0.044469919907379488 0.10924082535535498 -0.093289647200217915 0.027674020084151315 0.046272095793170695 0.05415205025850231 0.10890966507432116 0.10760903809907132 0.1053698834950845 0.10717987314254283 0.10577380287602633 0.10685352203610299 0.10560307089821951 0.1053986884486493 0.10537122648021957 0.10536411421714431 0.10537778144272264 0.10537872372229384 0.10537819626631606 0.10537881901348281 0.10537883818940336
leaf_weight=7.8781891167163849 1.3225410729646672 2.1299013532698159 2.9703099243342939 3.8659912943840027 4.1654828786849976 2.5560495406389228 2.0950847491621962 2.4487362876534453 3.7243252024054527 2.4488933421671391 1.4064227156341078 4.5027615875005722 1.204211976379155 1.4526388831436623 1.7082807682454593 1.9559719301760257 1.746026154607544 1.4025800973177038 1.9518093317747105 1.2719645686447698 1.0718660391867159 1.0454576127231181 0.9717199057340683 1.0642653591930447 0.96636354923248369 0.968578681349756 1.6468437947332866 1.0655110664665697 3.3906128406524614 1.0171874910593031
leaf_count=36 8 24 38 17 21 13 19 24 21 25 20 20 19 16 19 28 31 29 32 25 18 21 20 22 20 20 34 22 70 21
internal_value=0 0.0574178 0.0646377 -0.0924559 -0.0475756 0.0011025 -0.0335437 0.0218729 -0.00759584 0.0912639 0.0437275 -0.13507 0.102882 0.0862847 0.0900801 0.106898 0.106048 0.10573 0.108043 0.105524 0.106013 0.105433 0.105398 0.105378 0.105376 0.105378 0.105379 0.105379 0.105379 0.105379
internal_weight=0 43.2798 41.9573 24.1368 11.7558 12.3907 8.80815 6.2521 7.88981 29.5666 5.80713 12.381 23.7595 3.58254 4.15702 22.5553 19.5849 17.629 3.35823 15.883 2.47445 13.4085 12.1365 11.0911 10.1194 9.153 8.08873 7.12016 6.05464 4.4078
internal_count=753 638 630 115 59 115 75 62 42 515 77 56 438 40 43 419 381 353 52 322 47 275 250 229 209 189 167 147 125 91
shrinkage=0.1


Tree=11
num_leaves=31
num_cat=0
split_feature=3 5 3 9 12 10 5 5 14 1 9 9 1 14 3 8 8 10 15 14 3 3 1 15 10 10 14 1 11 3
split_gain=29.9315 7.65958 6.27147 3.99899 4.90329 3.97084 6.42381 1.76772 1.55839 0.822644 2.30983 0.153896 0.119774 0.566146 0.00797433 0.00295347 0.00206181 0.00131452 0.000621135 0.000190599 1.2821e-05 5.15353e-06 6.02498e-07 7.81892e-09 5.40766e-10 2.88585e-10 7.92895e-11 1.63247e-12 7.99361e-13 1.06581e-14
threshold=-0.69857524613911515 -1.0714827220951537 -1.0667890552974686 -0.22758756722715459 -1.0000000180025095e-35 -0.80917055514391312 1.1336087404443325 -0.55639378972589171 -1.3267650805862459 -1.0794712481937749 0.57229220077160625 0.092364339972349691 0.82518490126067234 0.16370732750562308 -0.25284274031584525 -0.13478556826657365 -0.7697484028002185 2.1128705414774358 0.45718229789645465 -0.75962202802210987 -0.039666324487324864 1.5107076088110059 0.41112921659666202 -0.41469289803819737 -0.61591771285120334 1.0797670011006184 -0.18244278681093326 -1.0000000180025095e-35 0.3574370821309299 0.17351009134119558
decision_type=2 2 2 2 2 2 2 2 2 2 2 2 2 2 2 2 2 2 2 2 2 2 2 2 2 2 2 2 2 2
left_child=2 -2 7 -4 8 6 -3 -1 -5 10 18 -9 14 16 15 -11 -14 19 -7 -16 -21 22 23 -22 -25 26 -26 28 29 -28
right_child=1 5 3 4 -6 9 -8 11 -10 12 -12 -13 13 -15 17 -17 -18 -19 -20 20 21 -23 -24 24 25 -27 27 -29 -30 -31
leaf_value=-0.067322307619254645 -0.16537708361602615 0.11253269236062209 -0.088842027598501114 0.022467558965109484 -0.085647243229273709 0.10863740760680025 -0.11961804702892008 -0.14641111017192526 0.11819792608914997 0.11369289773419329 -0.065909263935810744 -0.1212931561693585 0.11265232275926591 0.034372801633245458 0.10631974611967135 0.10797681840941692 0.10776878164768539 0.10888368565487616 0.10539486664477327 0.10521640646470219 0.10483026838706569 0.10508835514341111 0.10492160695950475 0.10483782244388982 0.10483977944359146 0.10483878122022708 0.10484085637966466 0.1048406780069269 0.10484076260421958 0.10484084442186455
leaf_weight=6.1820834875106838 1.3180070817470539 2.3875574767589596 5.5089002363383797 3.8821238763630399 3.1805487424135146 1.2198562622070346 2.3801968842744827 5.5910169333219546 3.0259800516068935 1.6029286459088328 1.1459908783435819 4.3270938098430634 1.4610118083655836 1.380313456058502 1.0218762718141157 2.0728799216449358 2.1175616085529319 0.9344905614852913 1.1455387175083158 1.1596510671079219 0.87907554581761616 0.96636605635285455 0.98030236735940057 0.88032649084925818 0.88065026700496751 0.92450842261314381 1.0569934844970714 0.96887855231758546 1.6295031085610387 2.2461064197123051
leaf_count=27 7 34 35 26 22 20 16 27 28 18 19 21 18 24 20 33 34 17 24 25 20 21 22 20 20 21 24 22 37 51
internal_value=0 0.0707941 -0.0655115 -0.0203199 0.0170966 0.0806939 -0.00336348 -0.109292 0.0644007 0.095718 0.0506138 -0.135453 0.102555 0.0887777 0.106308 0.110469 0.109763 0.105256 0.107067 0.105006 0.1049 0.104867 0.104847 0.104839 0.10484 0.10484 0.104841 0.104841 0.104841 0.104841
internal_weight=0 32.7606 31.6977 15.5976 10.0887 31.4426 4.76775 16.1002 6.9081 26.6748 3.51139 9.91811 23.1634 4.95889 18.2045 3.67581 3.57857 14.5287 2.36539 13.5942 12.5724 11.4127 10.4463 9.46604 8.58697 7.70664 6.78213 5.90148 4.9326 3.3031
internal_count=753 567 186 111 76 560 50 75 54 510 63 48 447 76 371 51 52 320 44 303 283 258 237 215 195 175 154 134 112 75
shrinkage=0.1


Tree=12
num_leaves=31
num_cat=0
split_feature=3 5 3 10 5 11 10 8 13 1 8 1 3 14 3 8 8 3 10 15 14 3 3 10 15 10 14 1 11 7
split_gain=25.5484 6.33387 5.56047 3.70305 5.27701 3.29267 5.17592 4.87114 1.93334 0.832709 2.28249 0.133598 0.597602 0.0989335 0.00584437 0.0021597 0.00194082 0.00184734 0.000986834 0.000221124 0.000141297 9.40574e-06 3.76111e-06 4.45496e-07 5.24882e-09 4.36765e-10 7.54286e-11 4.26752e-11 6.10179e-13 9.74776e-14
threshold=-0.69857524613911515 -1.0714827220951537 -1.0667890552974686 -0.80917055514391312 1.1336087404443325 -0.67745209709334853 -0.67403886842795813 1.0000000180025095e-35 1.0000000180025095e-35 -1.0794712481937749 0.81765868353389382 0.82518490126067234 0.28978813633857042 -1.2612346723614516 -0.25284274031584525 -0.13478556826657365 -0.92848911143362967 -1.2024467744610725 2.1128705414774358 0.45199063316442839 -0.75962202802210987 -0.039666324487324864 1.5107076088110059 1.2526774389414641 -0.41469289803819737 -0.61591771285120334 -0.20153122404157905 0.16269580579825577 0.3574370821309299 0.25849824759291007
decision_type=2 2 2 2 2 2 2 2 2 2 2 2 2 2 2 2 2 2 2 2 2 2 2 2 2 2 2 2 2 2
left_child=2 -2 8 4 -3 6 -4 -7 17 10 19 14 16 -8 15 -11 -13 -1 20 -5 -16 -22 23 24 -23 -26 -27 28 -28 -30
right_child=1 3 5 9 -6 7 13 -9 -10 11 -12 12 -14 -15 18 -17 -18 -19 -20 -21 21 22 -24 -25 25 26 27 -29 29 -31
leaf_value=-0.13419396368010028 -0.13810897465474112 0.11134923486022533 -0.10095268473686557 0.10679643240527714 -0.10083651209861014 -0.11257470572153079 0.10255223606132183 0.044166745817210945 -0.064801729041651115 0.11228588403197866 -0.069345979553513765 0.1113871661276902 0.027454390397228735 0.073901461829954246 0.10569367858088347 0.1071723080231009 0.10647359449193115 -0.13719064683483337 0.10802708893100983 0.10481435411400244 0.10469636402151439 0.10435002268551073 0.10458082232711348 0.10443358845325704 0.10435631650848878 0.10435789302087534 0.10435903143307085 0.10435825765203768 0.10435898234197599 0.10435893294240779
leaf_weight=4.3215866386890402 1.4145546555519128 2.1821390725672272 2.016097079962492 1.0913086794316873 2.5321480706334114 5.7581564672291261 2.6661477200686932 3.0239830166101456 7.2378220856189754 1.4676320813596251 1.1112903840839861 1.3363481312990191 1.2514052130281923 2.199528604745864 0.9298292696476097 1.8889792487025392 2.0175227485597125 3.9259630143642417 0.85192458704114038 1.1623374000191686 1.0542416721582508 0.79897751286626473 0.87843109294772226 0.85068413615226823 0.80004015192390099 0.84032080322504654 3.7223117686807479 0.88040389865636814 0.80048907548189141 0.80048096925020218
leaf_count=23 7 34 13 20 16 36 20 22 32 18 16 18 20 20 20 33 38 20 17 27 25 20 21 21 20 21 93 22 20 20
internal_value=0 0.068557 -0.0600266 0.0785518 -0.00262043 -0.0180176 0.0337758 -0.0586034 -0.10252 0.0941486 0.0479397 0.101493 0.0864273 0.0896007 0.105682 0.109408 0.108431 -0.13562 0.104735 0.105774 0.104508 0.104412 0.104383 0.104365 0.104358 0.104359 0.104359 0.104359 0.104359 0.104359
internal_weight=0 30.6638 31.1493 29.2492 4.71429 15.6639 6.88177 8.78214 15.4854 24.535 3.36494 21.17 4.60528 4.86568 16.5647 3.35661 3.35387 8.24755 13.2081 2.25365 12.3562 11.4264 10.3721 9.49371 8.64302 7.84405 7.04401 6.20369 5.32328 1.60097
internal_count=753 567 186 560 50 111 53 58 75 510 63 447 76 40 371 51 56 43 320 47 303 283 258 237 216 196 176 155 133 40
shrinkage=0.1


Tree=13
num_leaves=29
num_cat=0
split_feature=3 3 13 1 1 10 3 9 11 15 10 15 1 5 10 10 1 8 14 3 3 10 10 1 14 5 15 8
split_gain=22.3087 5.43625 3.9974 3.1248 4.22428 2.65867 2.61493 2.05419 1.57051 1.23677 1.11922 0.841254 0.356884 0.00342145 0.00263397 0.00068912 0.00020965 0.000241142 7.85342e-06 2.61189e-06 8.86669e-10 1.87049e-10 3.48352e-11 3.37419e-11 1.04325e-11 4.25437e-13 7.10543e-15 8.88178e-16
threshold=-0.87299231363517737 -0.078425672819783118 1.0000000180025095e-35 -0.085737605000150471 -0.58260442659696288 -0.12479394822762523 -1.1636874261286143 0.25234029357210191 -0.40148164930020763 -0.59834803793362457 -0.50694054614478812 -0.6174923016329712 0.82518490126067234 -0.83735138920003471 -0.78156300624495456 2.0779978481313832 -1.0794712481937749 0.34143655763366004 -0.56814729167759059 1.5107076088110059 0.018472698011362521 -0.6042934817358524 1.1480593589033055 0.16269580579825577 -0.025209164673964248 -0.70538645611369477 0.014592879491219993 -1.0000000180025095e-35
decision_type=2 2 2 2 2 2 2 2 2 2 2 2 2 2 2 2 2 2 2 2 2 2 2 2 2 2 2 2
left_child=2 3 10 4 5 -2 -4 8 -5 -3 -1 -6 14 -9 -11 16 17 -16 -18 20 -20 -22 23 24 -23 -26 -27 -28
right_child=1 9 6 7 11 -7 -8 13 -10 12 -12 -13 -14 -15 15 -17 18 -19 19 -21 21 22 -24 -25 25 26 27 -29
leaf_value=-0.14377460041234674 0.11324254297124324 0.018920604398077273 -0.096832748256509671 -0.033606726546942876 -0.050489086886713552 -0.050737474274553253 0.0028443245571058862 0.11378286593484765 0.066500220736933222 0.10871521793342231 -0.07767262966918885 -0.13622684670348748 0.061304070588975704 0.10755197229847291 0.10405873066523247 0.1072428687585171 0.10426686652923596 0.10627616762848172 0.10392336838615873 0.1041200543092828 0.10392514142934067 0.10392662675730138 0.10392614240061931 0.10392630266407631 0.10392699016912033 0.10392706653585447 0.10392705700547554 0.10392705306542488
leaf_weight=6.7715442925691605 2.3276695013046265 2.1851670742034939 4.1678933054208755 3.1204118579626083 2.1335452757775784 1.7188838981091974 7.1416568383574486 2.1239262036979203 3.1483393274247629 1.5495602749288107 4.1198440492153168 2.4684874825179595 2.1736889816820613 1.5062575973570345 1.0449254326522357 0.77103009819984514 0.81361610442399879 0.92416962236165989 0.94450799375771755 0.75909673795104105 0.7631908990442734 0.72710309922694971 0.72701973095536221 0.87245712056756008 1.3452554978430247 0.72717829048634186 1.2725588120520095 0.90897021815180989
leaf_count=36 31 38 20 32 22 20 39 25 28 27 20 18 39 27 28 17 21 17 26 20 21 20 20 24 37 20 35 25
internal_value=0 0.0512315 -0.0755306 0.0129694 -0.0309433 0.0435876 -0.0338895 0.0513354 0.0166697 0.0895722 -0.11877 -0.096478 0.0990296 0.111198 0.104825 0.104346 0.104157 0.105099 0.103969 0.103943 0.103926 0.103927 0.103927 0.103927 0.103927 0.103927 0.103927 0.103927
internal_weight=0 37.057 22.2009 18.5475 8.64859 4.04655 11.3096 9.89893 6.26875 18.5095 10.8914 4.60203 16.3243 3.63018 14.1506 12.6011 11.83 1.9691 9.86095 9.04734 8.28824 7.34373 6.58054 5.85352 4.98107 4.25396 2.90871 2.18153
internal_count=753 638 115 203 91 51 59 112 60 435 56 40 397 52 358 331 314 45 269 248 228 202 181 161 137 117 80 60
shrinkage=0.1


Tree=14
num_leaves=31
num_cat=0
split_feature=3 5 3 10 5 9 12 13 11 3 14 1 15 15 8 3 14 3 1 8 5 14 15 10 3 10 1 3 14 11
split_gain=18.9811 4.80551 4.40997 3.49796 4.22203 2.78333 3.74698 1.8731 1.3781 0.96558 0.566639 0.231178 0.640883 0.00387879 0.00143199 0.00100073 0.000705955 0.000667777 0.00015503 0.00018707 0.000108497 2.82521e-06 1.77837e-07 5.54537e-08 9.7531e-10 3.41865e-10 2.53895e-11 1.71854e-11 1.25633e-12 1.85185e-13
threshold=-0.69857524613911515 -1.0714827220951537 -1.0667890552974686 -0.80917055514391312 -1.0000000180025095e-35 -0.22758756722715459 1.3838898233412442 1.0000000180025095e-35 -0.4497764776640073 2.3634132721250878 -1.33857236134747 0.82518490126067234 -0.34687677747610496 -0.51171213271793714 -0.29352627689998484 -1.2024467744610725 -1.0117074722742465 -0.13656469531847051 -1.0794712481937749 0.50017726626707126 -0.81180978924783986 -0.46306249290269524 2.3680393983278525 1.5955922568443175 0.037852372177591659 -0.55198444171677308 0.16269580579825577 0.84210885007610059 0.22628591554011138 0.28844447018264469
decision_type=2 2 2 2 2 2 2 2 2 2 2 2 2 2 2 2 2 2 2 2 2 2 2 2 2 2 2 2 2 2
left_child=2 -2 7 4 -3 -4 8 15 -7 10 -5 13 -13 14 -12 -1 -16 -15 19 -19 -18 -20 23 24 -23 -26 27 28 -27 -30
right_child=1 3 5 9 -6 6 -8 -9 -10 -11 11 12 -14 17 16 -17 20 18 21 -21 -22 22 -24 -25 25 26 -28 -29 29 -31
leaf_value=-0.1265145567726764 -0.1090995114181347 0.10934244156618594 -0.06968802566249227 0.031847221765454292 -0.088025324903920593 0.10185558786675397 -0.068368069260164921 -0.054949192458918605 0.0081681851330790874 -0.01617952319532363 0.11024935268081271 0.10790564703722845 0.01229005967842752 0.10632014135222866 0.10804955420798212 -0.12887480538831803 0.10570435502713293 0.10369056359350214 0.1037520872051301 0.1057150104863307 0.10408871749315207 0.10353514739721625 0.10358278136187618 0.1035078891106702 0.10353675677372287 0.10353925060804475 0.10353867222443405 0.10353881145589926 0.10353941519182804 0.10353935870095742
leaf_weight=3.7547863274812698 1.5109563618898416 1.8544458374381063 5.7886306419968614 1.3016376160085297 2.6082903221249607 3.7233919724822035 3.3255457133054733 6.9824645370244998 2.714872203767297 0.80218980088829894 1.3160379119217394 2.0442688316106801 1.0668362714350212 1.1040895767510051 1.2769388146698475 3.4441553056240082 0.86045303940772988 1.0585981234908199 0.68820517510176493 0.80244861170649517 0.8040644861757873 0.79148158803577651 0.90091896057128895 0.65479664504528035 0.65984979271889521 0.72631343826650807 0.82523033767938603 0.66020840406417836 1.9479244016110899 0.82537940889596928
leaf_count=23 7 34 35 21 16 35 22 32 19 16 22 37 21 22 22 20 18 31 20 16 22 24 27 20 20 22 25 20 59 25
internal_value=0 0.0641939 -0.051521 0.0744297 -0.0060111 -0.014746 0.0178273 -0.0918513 0.0623497 0.0914289 0.095678 0.100048 0.0751179 0.104925 0.107508 -0.127644 0.106281 0.10398 0.103735 0.104563 0.104924 0.103558 0.103541 0.103536 0.103538 0.103539 0.103539 0.103539 0.103539 0.103539
internal_weight=0 27.0916 29.7338 25.5806 4.46274 15.5524 9.76381 14.1814 6.43826 21.1179 20.3157 19.014 3.11111 15.9029 4.25749 7.19894 2.94146 11.6454 10.5414 1.86105 1.66452 8.68031 7.9921 7.09118 6.43639 5.64491 4.98506 4.15983 3.49962 2.7733
internal_count=753 567 186 560 50 111 76 75 54 510 494 473 58 415 84 43 62 331 309 47 40 262 242 215 195 171 151 126 106 84
shrinkage=0.1


Tree=15
num_leaves=31
num_cat=0
split_feature=3 3 13 1 4 14 1 3 14 9 14 10 1 0 10 5 3 1 8 15 10 14 3 10 3 1 15 11 15 0
split_gain=16.5262 4.65723 3.44958 2.56778 3.47748 3.15798 3.39157 2.15464 2.02387 1.78234 1.45326 1.21872 0.320343 0.521238 0.00308192 0.00228921 0.000394921 0.000114564 0.00013672 3.58761e-06 2.88018e-08 2.03934e-09 8.81931e-10 3.32689e-10 4.84146e-11 2.14442e-11 4.12559e-13 2.39364e-13 2.4869e-14 1.26565e-14
threshold=-0.87299231363517737 -0.078425672819783118 1.0000000180025095e-35 -0.085737605000150471 1.0000000180025095e-35 -1.2508049076890366 -0.58260442659696288 -1.1636874261286143 -1.0117074722742465 0.25234029357210191 -1.3165321039265183 -0.50258145947653143 0.82518490126067234 -1.0000000180025095e-35 -0.80335843958623754 -0.83735138920003471 1.6269856538083804 -1.0794712481937749 0.50017726626707126 -0.56265534290094432 1.5767028812818722 -0.37923079949800331 0.018472698011362521 -0.61591771285120334 0.89055803549167345 0.16269580579825577 1.7265443248768637 0.4264296940792151 0.28228809223632162 -1.0000000180025095e-35
decision_type=2 2 2 2 2 2 2 2 2 2 2 2 2 2 2 2 2 2 2 2 2 2 2 2 2 2 2 2 2 2
left_child=2 3 11 4 -2 -6 -7 -4 -3 10 -5 -1 14 -14 -10 -11 17 18 -16 -19 21 -21 -23 -24 25 26 27 28 29 -25
right_child=1 8 7 9 5 6 -8 -9 12 15 -12 -13 13 -15 16 -17 -18 19 -20 20 -22 22 23 24 -26 -27 -28 -29 -30 -31
leaf_value=-0.13675339259671176 0.074829185834022857 -0.025824942483794647 -0.087510114466154476 0.065245172274249738 -0.20081719556973776 0.068760389956976073 -0.10208790444528 0.0049097105917551079 0.10851082867953553 0.11177024867260046 -0.031585887509737696 -0.064205641090251522 0.012574672371222459 0.10984407324142245 0.10332719443698611 0.10626526051120251 0.10562803135693886 0.10343492399292534 0.1051426578060404 0.10318428580409447 0.10316695524269107 0.10318673622551261 0.10318853525343726 0.10319127934327715 0.10319027982897254 0.10319067193683024 0.10319117960146047 0.10319120888745664 0.10319126837065945 0.1031912989508192
leaf_weight=6.1287585347890854 2.3751466870307922 1.459620602428912 3.9109878093004227 3.1114253103733063 1.3807002678513525 2.0308832228183742 2.7156050577759765 7.1058428660035133 1.4083593115210487 1.8639649450778963 3.0884078778326494 3.7216683179140091 1.0691934600472452 1.1365174055099476 0.9610559660941298 1.2701226118952034 0.83282954618334848 0.6381837874650883 0.72983622550964355 0.59815240651368373 0.59507183730602253 0.59858557581903493 0.59890409931539679 0.6892975065857101 0.74901561066508282 0.77906666509807099 0.68927714228630055 0.59937649220228184 1.0788966938853262 0.62936233915390205
leaf_count=37 30 25 20 31 9 31 21 39 27 25 29 19 21 20 31 27 21 20 16 20 20 20 20 23 25 26 23 20 36 21
internal_value=0 0.046911 -0.0663453 0.0118655 -0.0278893 -0.0677071 -0.0289869 -0.0278994 0.0863716 0.0480785 0.0170094 -0.109344 0.0977592 0.0626938 0.104112 0.109539 0.103536 0.103361 0.104111 0.103207 0.103188 0.10319 0.10319 0.103191 0.103191 0.103191 0.103191 0.103191 0.103191 0.103191
internal_weight=0 33.6769 20.8673 17.8363 8.50234 6.12719 4.74649 11.0168 15.8406 9.33392 6.19983 9.85043 14.381 2.20571 12.1753 3.13409 10.7669 9.93408 1.69089 8.24319 7.60501 7.00993 6.41178 5.8132 5.21429 4.46528 3.68621 2.99693 2.39756 1.31866
internal_count=753 638 115 203 91 61 52 59 435 112 60 56 410 41 369 52 342 321 47 274 254 234 214 194 174 149 123 100 80 44
shrinkage=0.1


Tree=16
num_leaves=31
num_cat=0
split_feature=3 5 5 5 9 14 3 7 11 15 12 14 1 1 14 10 3 14 8 1 3 15 10 15 10 14 1 3 11 3
split_gain=14.3895 9.04943 4.49042 9.14358 3.87956 2.91273 4.3777 3.01203 2.09271 3.25423 1.69314 0.614388 0.438486 1.58987 0.0303177 0.0221612 0.00132859 0.00011868 7.22151e-05 4.501e-05 2.78886e-05 1.66037e-06 2.76662e-07 1.17835e-07 2.51624e-08 4.65681e-11 1.00222e-11 3.30447e-12 1.33671e-13 3.24185e-14
threshold=-0.60167687530796954 -1.1055381886980802 -0.55639378972589171 1.5678159396316445 -0.38756352082690676 0.27016964236932806 -1.0086500327987811 -0.55133917080857653 1.3923262613552085 -0.30501898057414362 -0.52915311063083637 -1.33857236134747 0.82518490126067234 0.99080717512627658 0.71845273527047382 -0.81788872848042626 -0.25284274031584525 -0.73758177060115793 0.18269584900024877 -1.0794712481937749 -0.039666324487324864 -0.45784861112316527 -0.62027679951945991 2.0665983648245807 1.5476423034934947 -0.14879203664144425 0.16269580579825577 0.75490031632806953 0.3574370821309299 0.15413041717496648
decision_type=2 2 2 2 2 2 2 2 2 2 2 2 2 2 2 2 2 2 2 2 2 2 2 2 2 2 2 2 2 2
left_child=2 -2 5 11 -5 6 -1 10 12 -10 -8 -4 15 -14 -15 -3 -17 -18 -11 -19 -21 -22 -23 24 25 -24 27 28 29 -27
right_child=1 8 3 4 -6 -7 7 -9 9 18 -12 -13 13 14 -16 16 17 19 -20 20 21 22 23 -25 -26 26 -28 -29 -30 -31
leaf_value=-0.10065479032103611 -0.22943426714743437 0.11592761160896081 -0.12076365093918327 -0.063140047234364519 0.12368671057327059 0.078218596359736589 0.018430533303278988 0.081828680999143422 -0.11538004102770634 0.10322360872610802 -0.087418112052849578 -0.17466898982319679 -0.014502858694873083 0.10578050487311211 0.12771709004177309 0.10619908245699164 0.10426689332856087 0.1036313641355924 0.10464119623991555 0.10355753385827776 0.10306555286362369 0.10295466416609111 0.10287729477988371 0.10292436578655884 0.10285524526322275 0.10287841621951302 0.10287789803391419 0.10287811854876394 0.10287834295230364 0.10287838847668387
leaf_weight=5.1258954405784634 0.97255656123161571 1.6929615568369687 5.2291377782821646 2.1511780470609665 2.2997314408421508 3.294800277799367 3.2417707853019255 3.8862260207533836 1.2687751445919278 0.79741110280156025 2.8308372460305691 3.5496198236942282 1.4997568428516377 1.6841026265174153 1.0065962094813583 1.7213306874036849 0.90268533118069427 1.1888256445527101 0.65416157059371471 0.72244173474610107 0.57321240007877605 0.55506975390017288 0.57090588472783776 0.55161858536303032 0.53975543752312649 0.59831204265353655 0.6254019010812043 0.57106024399399746 0.59829776361584652 1.3869837149977682
leaf_count=26 4 27 35 15 27 25 26 39 16 27 18 20 20 36 13 36 26 37 17 23 20 20 21 20 20 22 23 21 22 51
internal_value=0 0.0683449 -0.0389388 -0.083364 0.0333911 -0.0069613 -0.0255663 0.0130824 0.0830385 0.00160736 -0.0309124 -0.14256 0.0960774 0.0680007 0.113987 0.10527 0.103645 0.103177 0.103862 0.103061 0.102968 0.102903 0.102887 0.102881 0.102876 0.102878 0.102878 0.102878 0.102878 0.102878
internal_weight=0 20.6822 31.6092 13.2297 4.45091 18.3795 15.0847 9.95883 19.7097 2.72035 6.07261 8.77876 16.9893 4.19046 2.6907 12.7989 11.1059 9.38457 1.45157 8.48189 7.29306 6.57062 5.99741 5.44234 4.89072 4.35096 3.78006 3.15465 2.58359 1.9853
internal_count=753 522 231 97 42 134 109 83 518 60 44 55 458 69 49 389 362 326 44 300 263 240 220 200 180 160 139 116 95 73
shrinkage=0.1


Tree=17
num_leaves=31
num_cat=0
split_feature=3 5 14 3 12 9 11 10 2 1 12 1 1 10 14 10 3 14 1 3 15 10 15 10 14 1 3 11 3 15
split_gain=12.48 7.57253 3.98705 5.49401 2.00774 4.15554 1.96906 2.99016 1.94527 1.20283 1.16384 0.473175 1.47936 0.36706 0.024168 0.0168664 0.000976886 8.79711e-05 3.31437e-05 2.05728e-05 1.22076e-06 2.03579e-07 8.65751e-08 1.8472e-08 3.43343e-11 7.36211e-12 2.43805e-12 9.28146e-14 2.62013e-14 9.76996e-15
threshold=-0.60167687530796954 -1.1055381886980802 0.39945936670473309 -1.0667890552974686 1.3838898233412442 -1.0000000180025095e-35 1.3923262613552085 -0.28172106828486315 1.0000000180025095e-35 0.24550694273105786 -0.62025039320093545 0.82518490126067234 0.99080717512627658 -0.61155862618294676 0.77296301478479224 -0.81788872848042626 -0.25284274031584525 -0.73758177060115793 -1.0794712481937749 -0.039666324487324864 -0.45784861112316527 -0.62027679951945991 2.0665983648245807 1.5476423034934947 -0.14879203664144425 0.16269580579825577 0.75490031632806953 0.3574370821309299 0.23164911383988299 0.6375926473343656
decision_type=2 2 2 2 2 2 2 2 2 2 2 2 2 2 2 2 2 2 2 2 2 2 2 2 2 2 2 2 2 2
left_child=2 -2 3 10 5 8 11 -8 -5 -7 13 15 -13 -1 -14 -3 -17 -18 -19 -20 -21 -22 23 24 -23 26 27 28 -26 -30
right_child=1 6 -4 4 -6 9 7 -9 -10 -11 -12 12 14 -15 -16 16 17 18 19 20 21 22 -24 -25 25 -27 -28 -29 29 -31
leaf_value=-0.10118670644461424 -0.20357843221379707 0.11449288154336434 0.076032742469502548 0.018624115084860626 -0.064136193998131016 0.035822262760306332 -0.1045682020726183 0.10636645842844697 -0.090415537102927379 0.13467596801106954 -0.053432159292094099 -0.012911105548024701 0.10517124457505332 -0.14483203181004028 0.12575686835829428 0.10558378784898317 0.10385102322556164 0.10327525332632248 0.10320921108603523 0.10276547349501455 0.10266568121970759 0.10259600260319449 0.10263836476783028 0.10257616915441339 0.10259700933596434 0.10259654705482163 0.10259674502912711 0.10259694846801315 0.10259699460670853 0.10259697502303865
leaf_weight=3.7169863879680634 0.98551072180271404 1.5500707607716346 2.863942362368106 3.0131858587265068 5.0461455807089797 2.7222636006772483 1.3309247978031638 1.3575150351971377 3.5799685120582581 2.2467759232968092 3.3778472393751198 1.5153162516653531 1.5635918304324152 4.001124881207943 0.89777158573269833 1.5661376193165804 0.8198875319212674 1.0792140532284973 0.6557860355824231 0.52010137774050225 0.50358958169817913 0.51792116649448861 0.50044508837163437 0.48965197801589955 0.78950322791933647 0.56735982373356808 0.51806158758699883 0.54277136549353588 0.51810891367495038 0.49343379028141499
leaf_count=26 4 27 24 25 36 26 23 37 24 26 21 20 37 23 12 36 26 37 23 20 20 21 20 20 32 23 21 22 21 20
internal_value=0 0.0664429 -0.0362937 -0.0479055 -0.0115065 0.011463 0.0809867 0.00194226 -0.0405825 0.0805195 -0.102387 0.0946013 0.0648233 -0.123813 0.11268 0.104782 0.103288 0.102866 0.102761 0.102678 0.102619 0.102605 0.102599 0.102594 0.102597 0.102597 0.102597 0.102597 0.102597 0.102597
internal_weight=0 19.2827 30.5682 27.7043 16.6083 11.5622 18.2972 2.68844 6.59315 4.96904 11.096 15.6087 3.97668 7.71811 2.46136 11.632 10.082 8.51584 7.69595 6.61673 5.96095 5.44085 4.93726 4.43681 3.94716 3.42924 2.86188 2.34382 1.80105 1.01154
internal_count=753 522 231 207 137 101 518 60 49 52 70 458 69 49 49 389 362 326 300 263 240 220 200 180 160 139 116 95 73 41
shrinkage=0.1


Tree=18
num_leaves=31
num_cat=0
split_feature=3 5 10 13 5 11 10 10 8 3 7 1 3 1 1 14 10 3 14 1 3 15 10 15 10 14 1 3 11 3
split_gain=10.7767 6.42895 3.84434 3.56305 3.52386 1.85738 2.56843 1.63877 2.88988 3.09565 1.50398 1.21581 0.915493 0.505792 1.37713 0.0179535 0.012812 0.000718838 6.5213e-05 2.44207e-05 1.51829e-05 8.98244e-07 1.49916e-07 6.36537e-08 1.35723e-08 2.51568e-11 5.40812e-12 1.79723e-12 8.03801e-14 1.77636e-14
threshold=-0.60167687530796954 -1.1055381886980802 -0.72344185066819977 1.0000000180025095e-35 -0.77775432264491351 1.3923262613552085 -0.30496953051556513 -0.6042934817358524 0.34143655763366004 -0.89237198780140647 -0.55133917080857653 1.3220517228574848 -1.0667890552974686 0.82518490126067234 0.99080717512627658 0.77296301478479224 -0.81788872848042626 -0.25284274031584525 -0.73758177060115793 -1.0794712481937749 -0.039666324487324864 -0.45784861112316527 -0.62027679951945991 2.0665983648245807 1.5476423034934947 -0.14879203664144425 0.16269580579825577 0.75490031632806953 0.3574370821309299 0.15413041717496648
decision_type=2 2 2 2 2 2 2 2 2 2 2 2 2 2 2 2 2 2 2 2 2 2 2 2 2 2 2 2 2 2
left_child=2 -2 11 4 -4 13 -7 -5 9 -9 -11 12 -1 16 -15 -16 -3 -18 -19 -20 -21 -22 -23 24 25 -24 27 28 29 -27
right_child=1 5 3 7 -6 6 -8 8 -10 10 -12 -13 -14 14 15 -17 17 18 19 20 21 22 23 -25 -26 26 -28 -29 -30 -31
leaf_value=-0.10481327209222123 -0.18499501869141 0.11318301287122777 0.01558238551310929 0.10877752218021629 -0.11840862323137213 -0.090904375189008069 0.10570728444909826 -0.085003932807124205 0.10589772173202971 -0.014474127406160926 0.11138883515407319 -0.13625958227314436 -0.030594123746175147 -0.011508202205782563 0.10466125332648971 0.12318225169262434 0.10503186243000671 0.10347661290891597 0.10295500017095537 0.10289586348075619 0.10249550701176019 0.10240565256546991 0.1023428708308961 0.10238101127782849 0.10232501823470211 0.10234378030781272 0.10234335979872369 0.10234353767483906 0.1023437184617384 0.10234375762282465
leaf_weight=2.7977014183998108 0.97638289630413311 1.417965486645701 3.4879000838845968 2.0118565205484655 4.4887245036661652 1.4030274879187348 1.2621381953358639 3.746691048145296 2.3819579910486937 2.0841157995164417 1.7437359243631272 3.0846085324883461 4.0940099414438027 1.52925506979227 1.421338673681021 0.82844336517155159 1.4241665564477459 0.74441242963075716 0.97939603403210718 0.59509468264877874 0.47178358957171518 0.45676479488611299 0.46973452158272344 0.453901708126068 0.44408749230206002 0.49228492565452331 0.51457373052835453 0.46986219100654114 0.49227312020957459 1.1411957181990144
leaf_count=18 4 27 24 16 30 22 38 21 25 19 25 22 31 20 37 12 36 26 37 23 20 20 21 20 20 22 23 21 22 51
internal_value=0 0.0645457 -0.0333969 -0.00804622 -0.059819 0.078868 0.00220469 0.0264591 0.00982548 -0.0203862 0.0428614 -0.0840787 -0.0607235 0.0931098 0.0617114 0.111481 0.104338 0.102967 0.102587 0.102492 0.102416 0.102364 0.102351 0.102346 0.102342 0.102344 0.102344 0.102344 0.102344 0.102344
internal_weight=0 17.9881 29.9213 19.945 7.97662 17.0117 2.66517 11.9684 9.9565 7.57454 3.82785 9.97632 6.89171 14.3465 3.77904 2.24978 10.5675 9.14953 7.72536 6.98095 6.00156 5.40646 4.93468 4.47791 4.02401 3.57992 3.11019 2.59562 2.12575 1.63348
internal_count=753 522 231 160 54 518 60 106 90 65 44 71 49 458 69 49 389 362 326 300 263 240 220 200 180 160 139 116 95 73
shrinkage=0.1


Tree=19
num_leaves=31
num_cat=0
split_feature=3 5 5 5 10 1 2 14 10 10 11 10 1 1 1 14 10 15 3 14 1 3 15 10 15 10 14 1 3 11
split_gain=9.32923 5.51035 3.41244 7.26111 3.9271 2.64931 2.35781 2.48962 2.18504 2.99218 1.74971 4.76523 0.597096 0.536101 1.28242 0.0133232 0.00971407 0.000762297 0.000529317 4.83441e-05 1.80032e-05 1.12097e-05 6.61374e-07 1.10459e-07 4.68371e-08 9.98427e-09 1.85123e-11 3.97948e-12 1.31095e-12 5.81757e-14
threshold=-0.60167687530796954 -1.1055381886980802 -0.55639378972589171 1.5678159396316445 -0.79028117958146782 -0.66541556352976483 1.0000000180025095e-35 -1.0764507284482925 -0.68275704176447138 -0.0085516370741155999 1.3923262613552085 -0.73070699511529413 0.41112921659666202 0.82518490126067234 0.99080717512627658 0.77296301478479224 -0.81788872848042626 0.26898445136050447 -0.25284274031584525 -0.73758177060115793 -1.0794712481937749 -0.039666324487324864 -0.45784861112316527 -0.62027679951945991 2.0665983648245807 1.5476423034934947 -0.14879203664144425 0.16269580579825577 0.75490031632806953 0.3574370821309299
decision_type=2 2 2 2 2 2 2 2 2 2 2 2 2 2 2 2 2 2 2 2 2 2 2 2 2 2 2 2 2 2
left_child=2 -2 5 12 -5 -1 7 -7 -8 -10 13 -12 -4 16 -15 -16 -3 -13 -18 -20 -21 -22 -23 -24 25 26 -25 28 29 -28
right_child=1 10 3 4 -6 6 8 -9 9 -11 11 17 -14 14 15 -17 18 -19 19 20 21 22 23 24 -26 -27 27 -29 -30 -31
leaf_value=-0.084584159678946447 -0.17100809847922005 0.11198738678579284 -0.15899662278048537 -0.073835854543651866 0.12041026605381328 0.14902194943128191 -0.078858901533425341 0.0016047751784283183 0.080396470598246575 -0.05872778988768193 -0.17306968934566919 0.10747448375597245 -0.10249582265046249 -0.010268793159880414 0.10420319440552522 0.12086845644889686 0.10453634306593314 0.10319219195227575 0.10313934673012265 0.10266681921873505 0.10261381901434381 0.10225249246528317 0.10217154664998321 0.10211495604529429 0.10214931347486358 0.10209887597302392 0.10211576087423058 0.1021153965538296 0.1021155574591372 0.10211571962808169
leaf_weight=3.2328106109052941 0.95181284844875591 1.2960275430232275 3.8769886493682844 1.901091795414686 2.2999808676540852 2.2737385910004377 3.2673356868326682 2.3089751899242392 3.6707274429500121 2.6706191822886431 0.97554717212915454 0.82914601080119499 3.6138623952865601 1.5417482666671269 1.2914454974234106 0.76321947202086438 1.2944359611719827 0.833633191883564 0.67566258646547517 0.88855495676398 0.53986856900155267 0.4278503190726014 0.41419663466512879 0.42593370936810737 0.4115913864225148 0.40267167985439289 1.4811664894223384 0.46659204922616471 0.42604972980916489 0.4463710170239209
leaf_count=24 4 27 27 11 31 22 22 18 32 16 10 19 28 20 37 12 36 31 26 37 23 20 20 21 20 20 73 23 21 22
internal_value=0 0.0626798 -0.0309295 -0.0727221 0.032509 -0.00288603 0.0157249 0.0747466 -0.0124247 0.0218051 0.0767293 0.00238743 -0.131739 0.0915957 0.0586668 0.110394 0.103936 0.105328 0.102679 0.102335 0.102249 0.102181 0.102134 0.102122 0.102117 0.102114 0.102116 0.102116 0.102116 0.102116
internal_weight=0 16.7835 29.1161 11.6919 4.20107 17.4242 14.1914 4.58271 9.60868 6.34135 15.8317 2.63833 7.49085 13.1934 3.59641 2.05466 9.59697 1.66278 8.30095 7.00651 6.33085 5.44229 4.90242 4.47457 4.06038 3.64878 3.24611 2.82018 2.35359 1.92754
internal_count=753 522 231 97 42 134 110 40 70 48 518 60 55 458 69 49 389 50 362 326 300 263 240 220 200 180 160 139 116 95
shrinkage=0.1


Tree=20
num_leaves=31
num_cat=0
split_feature=14 3 10 5 10 5 5 10 9 3 1 1 12 15 3 12 10 3 5 3 15 5 3 3 1 3 5 1 10 1
split_gain=8.28911 6.60965 3.23527 3.44801 2.58181 1.60804 3.58984 4.14162 3.43841 2.84928 2.55952 1.16533 1.11232 1.03015 1.11957 0.895004 0.345476 0.0335829 0.0213037 0.0116256 0.00548033 0.00148268 0.00101347 0.000831508 0.000154868 9.2919e-05 6.68861e-05 5.58772e-05 4.55526e-05 3.04621e-05
threshold=0.39945936670473309 -1.0667890552974686 0.55812962979924396 1.5678159396316445 -0.85130839293706029 -0.77775432264491351 -0.86289298915222956 0.17743606077149984 0.89224410797111064 -0.56291752697551123 0.82518490126067234 1.5704851336558912 -0.62025039320093545 -0.69439383547610956 -0.69857524613911515 1.3838898233412442 -0.61155862618294676 -0.71795492030534436 -0.86289298915222956 -0.81485329113648997 -0.6995855002081357 -0.81180978924783986 -0.52415817864305303 -0.60167687530796954 0.82518490126067234 -0.078425672819783118 -0.81180978924783986 0.41112921659666202 -0.65369646397609393 -1.0794712481937749
decision_type=2 2 2 2 2 2 2 2 2 2 2 2 2 2 2 2 2 2 2 2 2 2 2 2 2 2 2 2 2 2
left_child=1 12 3 5 -2 6 -3 11 9 -7 -11 17 16 -6 -15 20 -1 -8 -16 -4 -5 -21 -20 -19 25 -24 -25 -23 -27 -30
right_child=4 2 19 15 13 8 7 -9 -10 10 -12 -13 -14 14 18 -17 -18 23 22 21 -22 27 24 26 -26 28 -28 -29 29 -31
leaf_value=-0.09097701613884053 -0.030336023501385485 -0.069227630256878503 0.11898134919324128 0.11404661156180392 0.19778517658693603 -0.17820004708545145 0.12396209194837556 -0.10521656944330125 0.077698354032585432 0.10218654219820429 -0.14742139429649609 0.010790572769644003 -0.041864223007189595 -0.013688707895142611 0.1222802496218905 0.011756683041353043 -0.13755267998576617 0.10749130364209991 0.10733938876687399 0.1086762189144144 0.10503183008072468 0.10210339149148494 0.10369819064932151 0.10397048304063479 0.10401321656378085 0.1030245711682569 0.10239197445366661 0.10352488395486502 0.10269203018940505 0.10195753606551464
leaf_weight=2.9965197965502739 1.7354099322110403 5.0029603280127075 0.90122419223189387 1.3806336801499126 1.0177424866706122 2.6065547335892916 1.8867934830486799 1.4771619886159895 1.2147986665368078 0.90961059182883264 0.74915359355509281 1.5255176667124031 2.9924359694123215 0.90591030195355227 0.62387409806251337 1.4284340906888244 3.3991320803761482 0.75105086527765008 0.47221200168132593 0.70098080672323715 1.3182748369872563 0.56561741419136391 0.45572295971214583 0.51939076744020196 0.61759724467992771 0.58675581216811945 0.55557457916437814 0.54105609469115734 0.67924523726105457 3.3470608536154134
leaf_count=26 20 31 8 17 6 15 18 14 22 45 12 14 21 9 5 16 23 14 10 14 36 29 15 16 19 25 26 19 29 179
internal_value=0 -0.021032 0.00676098 -0.00631506 0.0810398 -0.0260129 -0.00510254 0.0426699 -0.0707269 -0.113 -0.0105448 0.0843726 -0.092186 0.103241 0.0907254 0.0757657 -0.115731 0.114606 0.104672 0.109703 0.109643 0.105078 0.102888 0.104938 0.102518 0.102336 0.103155 0.102798 0.102201 0.102081
internal_weight=0 33.4229 24.0348 21.3259 10.4415 17.1986 11.7184 6.71549 5.48012 4.26532 1.65876 5.23833 9.38809 8.70612 7.68838 4.12734 6.39565 3.71281 6.78247 2.70888 2.69891 1.80765 6.15859 1.82602 5.68638 5.06878 1.07497 1.10667 4.61306 4.02631
internal_count=753 436 366 296 317 227 133 102 94 72 57 88 70 297 291 69 49 74 282 70 53 62 277 56 267 248 42 48 233 208
shrinkage=0.1


Tree=21
num_leaves=31
num_cat=0
split_feature=14 3 10 5 10 12 10 7 3 11 10 12 3 12 15 3 10 14 5 3 15 3 5 3 1 3 11 1 1 14
split_gain=7.13823 5.7286 2.88666 2.9299 2.59618 1.39379 4.66929 3.03124 3.80956 1.88586 2.13191 1.05727 1.04138 0.865858 0.757586 1.07992 0.320107 0.226277 0.0153581 0.00841425 0.00399242 0.00265518 0.001095 0.000708875 0.000197258 6.23879e-05 6.32148e-05 4.57882e-05 1.26673e-05 4.15717e-08
threshold=0.39945936670473309 -1.0667890552974686 0.55812962979924396 1.5678159396316445 -0.86438565294183023 -0.52915311063083637 -0.68275704176447138 -0.71330665448887387 -0.75671426863780256 -0.4497764776640073 -0.3107816460732406 -0.62025039320093545 -0.52415817864305303 1.3838898233412442 -0.69439383547610956 -0.69857524613911515 -0.68275704176447138 -1.33857236134747 -0.86289298915222956 -0.81485329113648997 -0.6995855002081357 -0.52415817864305303 -0.81180978924783986 -0.52415817864305303 0.49394035352946408 -0.059045998653553998 1.3923262613552085 0.49394035352946408 -1.0794712481937749 0.60254459579778952
decision_type=2 2 2 2 2 2 2 2 2 2 2 2 2 2 2 2 2 2 2 2 2 2 2 2 2 2 2 2 2 2
left_child=1 11 3 5 -2 6 -3 -7 -9 17 -11 16 -12 20 -6 -16 -1 -8 -17 -4 -5 -10 -21 -20 25 -25 28 -24 -27 -30
right_child=4 2 19 13 14 7 9 8 21 10 12 -13 -14 -15 15 18 -18 -19 23 22 -22 -23 27 24 -26 26 -28 -29 29 -31
leaf_value=-0.086593321942470214 -0.037121014349100527 -0.10422420598451665 0.11694466640348396 0.11259366451662123 0.18273438609391449 -0.12608828915676454 0.13403247880871938 -0.090502946628697137 0.11503150487246937 0.085601312389239723 -0.13792575667680193 -0.038506004027619598 0.00023423767802966102 0.010641731805958093 -0.01225767660851796 0.11985502022867847 -0.13304167784065168 0.079578661332006528 0.1066178878097758 0.10782233550254215 0.10453804393702898 0.10728420124359812 0.10197171871833728 0.10326634284113789 0.10373100170466257 0.10223718799753373 0.10294398971413475 0.10334851524849763 0.10176219412231356 0.10172696328928288
leaf_weight=2.731899306178093 1.6366441622376431 2.9570391271263388 0.82893214747309718 1.2645427752286198 0.99264397472143073 3.3665597597137094 1.3912806473672392 1.9914969541132452 0.82982670143246651 1.6289189625531464 1.0408497471362381 2.9313922598957962 1.1464979220181613 1.420711297541857 0.91026168316602607 0.57533805072307487 3.2474646493792534 1.6901219133287693 0.43001890555023958 0.63904011622071277 1.1981713399291027 0.9474659170955515 0.59915918111801014 0.42553005367517283 0.91471570916473854 0.60592233389615913 0.59244989231228817 0.40471759997308254 0.39052543789148986 2.3526220638304949
leaf_count=25 18 29 8 17 6 33 14 13 12 28 9 21 31 16 9 5 24 26 10 14 36 32 33 16 34 30 25 15 23 141
internal_value=0 -0.0194896 0.00654644 -0.00555429 0.0778609 -0.0234661 0.000905714 -0.0571263 0.00447571 0.045975 -0.00100984 -0.0877017 -0.0655092 0.0728102 0.100838 0.0895433 -0.11182 0.104165 0.104282 0.108731 0.108674 0.110901 0.104587 0.102714 0.102396 0.102116 0.101992 0.102527 0.101823 0.101732
internal_weight=0 32.2561 23.3453 20.8735 9.82667 16.9901 9.85471 7.13535 3.76879 6.89767 3.81627 8.91076 2.18735 3.88343 8.19003 7.19738 5.97936 3.0814 6.28712 2.47185 2.46271 1.77729 1.64292 5.71178 5.28177 4.36705 3.94152 1.00388 3.34907 2.74315
internal_count=753 436 366 296 317 227 137 90 57 108 68 70 40 69 299 293 49 40 284 70 53 44 62 279 269 235 219 48 194 164
shrinkage=0.1


Tree=22
num_leaves=31
num_cat=0
split_feature=15 10 14 5 5 5 8 5 5 1 3 1 11 8 14 7 15 15 15 3 5 1 10 7 1 8 14 11 14 9
split_gain=6.46154 3.45755 3.59587 3.55861 5.40728 2.68933 2.23605 2.2124 1.91083 2.87433 2.44455 1.84361 1.83633 2.74061 1.51134 1.27264 0.380769 0.151415 0.0459327 0.0169899 0.00283634 0.000539412 8.42501e-05 3.48432e-05 2.16493e-05 9.93505e-06 2.90007e-06 2.57816e-06 2.03181e-07 2.72144e-08
threshold=-0.29139086065257486 -0.72344185066819977 0.39591718247636581 1.5678159396316445 -0.55639378972589171 -1.0714827220951537 1.1351401008007163 -0.77775432264491351 -0.86289298915222956 0.90799603819347452 -1.0667890552974686 -0.49979328966416076 -0.67745209709334853 -1.0872298200670409 -1.0764507284482925 -0.55133917080857653 -0.69439383547610956 -0.65221155952839649 -0.70477716494016196 -0.36912078531322007 -0.83735138920003471 0.57675149046226626 -0.71617670622110541 0.25849824759291007 -1.0794712481937749 -0.13478556826657365 -0.33869246888446686 1.3923262613552085 0.39945936670473309 -0.38756352082690676
decision_type=2 2 2 2 2 2 2 2 2 2 2 2 2 2 2 2 2 2 2 2 2 2 2 2 2 2 2 2 2 2
left_child=1 8 3 4 6 -2 7 12 -1 10 -10 -12 -3 -14 -15 -6 -4 -18 -5 -7 -19 22 -21 -22 25 -24 -26 28 -28 -30
right_child=5 2 16 18 15 19 -8 -9 9 -11 11 -13 13 14 -16 -17 17 20 -20 21 23 -23 24 -25 26 -27 27 -29 29 -31
leaf_value=-0.14250795487120291 -0.15057490153422323 0.079846119404209034 0.17510326401220364 0.13582305239328388 -0.17138951098792354 0.11791120254878987 0.11307765191477165 -0.097200733081650295 -0.089381296650643913 -0.10541926336733316 -0.024929500154830558 0.11934343651508766 -0.12113154817662189 0.084092333260348581 -0.042997996698040858 -0.063442312648637797 0.045305145520061971 0.11100175023344926 0.1051136955853024 0.10295966378767479 0.10195036239055739 0.10440695804575617 0.10185292701687705 0.10327099932923178 0.10191236533393398 0.1025354910331759 0.10163184348121899 0.1018519987088294 0.10157988477889544 0.10155602938583144
leaf_weight=2.2530152499675742 0.44122767448425282 2.9505941290408391 0.7259749881923202 0.81991891562938723 2.2344166394323111 0.79514622502028931 1.8188421102240688 2.1625437326729289 1.7395318374037732 3.8622164763510227 1.5970473475754252 1.9886270370334387 1.7556158825755135 2.1900122389197367 1.6337263872846928 2.1363754840567752 0.53678262792527731 0.78575368411839053 1.1997453207150091 0.67497303709387768 0.43608979508280576 1.0593470577150581 0.40978480409830809 0.36867586150765419 0.36423836834728662 0.44462437275797029 0.56558001693338322 0.39612123556435097 0.73382730409503061 1.3729065284132951
leaf_count=12 2 35 5 10 22 10 22 23 13 37 15 31 12 28 26 20 10 15 38 28 25 35 24 16 21 20 36 23 48 91
internal_value=0 -0.0154749 0.00792886 -0.00786697 -0.0228747 0.0886857 0.0105759 -0.0068601 -0.0599794 -0.039741 0.00789347 0.0550848 0.0160434 -0.0176981 0.0297919 -0.118627 0.11257 0.0912292 0.117581 0.104173 0.106728 0.102359 0.101921 0.102555 0.101758 0.102208 0.101646 0.101614 0.101579 0.101564
internal_weight=0 33.1955 21.7551 18.9018 16.8821 7.25778 12.5113 10.6925 11.4404 9.18742 5.32521 3.58567 8.52995 5.57935 3.82374 4.37079 2.85328 2.1273 2.01966 6.81655 1.59052 6.0214 4.96206 0.804766 4.28708 0.854409 3.43267 3.06844 2.67231 2.10673
internal_count=753 415 307 236 188 338 146 124 108 96 59 46 101 66 54 42 71 66 48 336 56 326 291 41 263 44 219 198 175 139
shrinkage=0.1


Tree=23
num_leaves=31
num_cat=0
split_feature=15 3 1 10 12 14 5 14 5 0 3 5 8 13 5 10 12 3 1 10 1 8 14 11 14 9 1 10 10 9
split_gain=5.75622 2.99828 2.75356 2.87391 2.61051 2.71847 3.99189 2.66485 2.39394 2.23221 1.97019 1.09989 1.71566 0.982235 0.795351 0.17794 0.0489277 0.0125464 0.000398952 6.22484e-05 1.59826e-05 7.32559e-06 2.14418e-06 1.90388e-06 1.49907e-07 2.00746e-08 1.7893e-08 1.2606e-09 8.31368e-12 1.52245e-12
threshold=-0.29139086065257486 -1.1830671002948432 1.8189185444542975 0.55812962979924396 1.3838898233412442 0.34691696731728539 1.5678159396316445 0.040714819576204243 -1.0714827220951537 0.58741985344300496 -1.0280297069650104 -0.86289298915222956 -1.0000000180025095e-35 1.0000000180025095e-35 -0.27117925692638289 -0.57232684616863716 -0.52915311063083637 -0.36912078531322007 0.57675149046226626 -0.71617670622110541 -1.0794712481937749 -0.13478556826657365 -0.33869246888446686 1.3923262613552085 0.39945936670473309 -0.38756352082690676 -0.58260442659696288 0.84582934990418035 -0.31949981940975386 0.41231624717185406
decision_type=2 2 2 2 2 2 2 2 2 2 2 2 2 2 2 2 2 2 2 2 2 2 2 2 2 2 2 2 2 2
left_child=1 15 3 4 5 6 9 13 -2 10 -3 -12 -13 -6 -7 -1 -5 -10 19 -19 21 -21 -22 24 -24 26 -26 28 -27 -30
right_child=8 2 -4 16 7 14 -8 -9 17 -11 11 12 -14 -15 -16 -17 -18 18 -20 20 22 -23 23 -25 25 27 -28 -29 29 -31
leaf_value=-0.11152737177520244 -0.14357446755375716 -0.090871232661474247 0.10657999360870968 0.078352914648619043 -0.065265738128572934 0.13355277588662248 0.11732816840388441 -0.14498377807711274 0.11608802981605511 -0.10211650715937888 -0.039185174831492954 -0.0096114931869237304 0.12470374574093193 0.031786737857044826 0.019959445290515389 -0.069932556693174136 0.10922490814333699 0.10267261963734574 0.10397895350585469 0.10167384925131705 0.101727569065252 0.10228940620291523 0.10147417400323544 0.10167291711392692 0.10144494586916233 0.1014070405239615 0.10141204894736044 0.10139975098474092 0.10140750829500873 0.10140781602622383
leaf_weight=2.3524946868419647 0.41767694056034077 2.1565979719162049 2.1361246630549422 0.81681174412369761 2.2880905643105507 1.7061875220388176 1.8859535539522756 2.9527572747319937 0.73019752651453007 3.828489450737834 1.9945217277854737 2.0596231408417287 1.7667814688757006 1.9160452764481295 0.96501279901713033 1.8273796141147602 1.3818597681820382 0.61236135009676163 0.96228134725242842 0.37140844855457544 0.33014472387731109 0.40323135722428549 0.51251265406608659 0.35902449209243048 0.30803865008056164 0.32838342059403713 0.3569038789719351 0.27226164191961288 0.32848959695547653 0.31486964505165815
leaf_count=27 2 18 26 25 15 35 39 28 10 33 15 23 31 28 23 16 33 28 35 24 21 20 36 23 22 24 26 20 24 23
internal_value=0 -0.0143669 -0.00251587 -0.0115771 -0.0217976 0.000235316 -0.0177678 -0.0721725 0.0881423 -0.0393488 -0.00922594 0.0210229 0.0524064 -0.0210338 0.0925154 -0.0933427 0.0977559 0.103777 0.102131 0.101736 0.101588 0.101994 0.101487 0.101458 0.101426 0.101413 0.101427 0.101406 0.101407 0.101408
internal_weight=0 32.0347 27.8549 25.7187 23.5201 16.3632 13.692 7.15689 6.60779 11.806 7.97752 5.82093 3.8264 4.20414 2.6712 4.17987 2.19867 6.19011 5.45991 4.49763 3.88527 0.77464 3.11063 2.78048 2.42146 1.90895 0.664943 1.244 0.971743 0.643359
internal_count=753 415 372 346 288 217 159 71 338 120 87 69 54 43 58 43 58 336 326 291 263 44 219 198 175 139 48 91 71 47
shrinkage=0.1


Tree=24
num_leaves=31
num_cat=0
split_feature=15 10 14 5 5 5 4 14 10 5 1 9 7 14 15 15 3 3 5 3 1 10 7 1 8 14 11 14 9 1
split_gain=5.12792 2.70408 3.02424 2.85839 4.45023 2.13694 1.85347 2.09747 1.48087 1.47487 2.38254 1.86757 1.16322 0.496606 0.296669 0.149314 0.0343165 0.00926794 0.00172068 0.000705901 0.00029512 4.60051e-05 4.1225e-05 1.18033e-05 5.40394e-06 1.58564e-06 1.40639e-06 1.10646e-07 1.48158e-08 1.32053e-08
threshold=-0.29139086065257486 -0.72344185066819977 0.39591718247636581 1.5678159396316445 -0.55639378972589171 -1.0714827220951537 1.0000000180025095e-35 -0.42705028658096139 0.17743606077149984 -0.86289298915222956 0.90799603819347452 -0.38756352082690676 -0.55133917080857653 -1.33857236134747 -0.69439383547610956 -0.65221155952839649 -0.85361263946894816 -0.36912078531322007 -0.83735138920003471 -0.64043622364042785 0.57675149046226626 -0.71617670622110541 0.25849824759291007 -1.0794712481937749 -0.13478556826657365 -0.33869246888446686 1.3923262613552085 0.39945936670473309 -0.38756352082690676 -0.58260442659696288
decision_type=2 2 2 2 2 2 2 2 2 2 2 2 2 2 2 2 2 2 2 2 2 2 2 2 2 2 2 2 2 2
left_child=1 9 3 4 6 -2 -3 8 13 -1 11 -11 -6 -8 -4 -16 -5 -7 -17 -18 21 -19 -20 24 -23 -25 27 -27 29 -29
right_child=5 2 14 16 12 17 7 -9 -10 10 -12 -13 -14 -15 15 18 19 20 22 -21 -22 23 -24 25 -26 26 -28 28 -30 -31
leaf_value=-0.12801328038137674 -0.13780054188801291 0.10134059968365577 0.16649693516395825 0.13445706901518592 -0.16408665859622271 0.1144607088890791 0.097418750303385468 -0.082204989384850519 -0.033432164118450507 -0.053197745848062132 -0.097333210579513371 0.070255203285351925 -0.057027066341203039 0.029545209658029693 0.042702986203248215 0.10939619310112521 0.10782142799832989 0.10241389513627108 0.10168061135542777 0.10278033566499206 0.10359328900987896 0.10151232148794734 0.10320061799378638 0.10156087803440293 0.10206762670575278 0.1013319466909407 0.10151140133533997 0.10130556478461489 0.10127020220258005 0.10127587391458084
leaf_weight=2.1538000106811515 0.39293298125267018 1.9035867638886035 0.66760727856308255 0.60539984703063954 2.0199133194983006 0.66962181404232968 1.8428171519190129 2.6721478914841947 2.9780389815568924 2.3961917869746676 3.5837543103843927 2.5079094516113427 2.0396619448438296 2.5973112722858791 0.50938483420759451 0.69704968668520451 0.4894348857924341 0.55541595257818643 0.37021872587501869 0.6423221230506887 0.87378452904522408 0.33657179679721594 0.34443488251417875 0.29919264651834998 0.36561123281717289 0.46435840055346567 0.32534937281161536 0.27908886596560478 1.1270517483353604 0.32335211522877294
leaf_count=12 2 30 5 6 22 10 18 26 39 22 37 37 20 33 10 15 12 28 25 30 35 24 16 21 20 36 23 22 91 26
internal_value=0 -0.0132517 0.00808329 -0.00661131 -0.0197969 0.0876545 0.0108345 -0.00623996 0.0211239 -0.0541092 -0.035356 0.00993489 -0.110296 0.0577152 0.109071 0.0891145 0.11524 0.103419 0.105861 0.10496 0.101926 0.101568 0.102413 0.101435 0.101801 0.101343 0.101317 0.101289 0.101277 0.10129
internal_weight=0 31.021 20.3793 17.7906 16.0535 6.01233 11.9939 10.0903 7.41817 10.6417 8.48786 4.9041 4.05958 4.44013 2.5887 1.92109 1.73716 5.6194 1.4117 1.13176 4.94978 4.07599 0.714654 3.52058 0.702183 2.81839 2.5192 2.19385 1.72949 0.602441
internal_count=753 415 307 236 188 338 146 116 90 108 96 59 42 51 71 66 48 336 56 42 326 291 41 263 44 219 198 175 139 48
shrinkage=0.1


Tree=25
num_leaves=31
num_cat=0
split_feature=15 3 1 10 1 5 7 5 11 1 14 14 9 3 8 10 14 3 3 3 10 5 1 10 8 1 8 14 11 14
split_gain=4.57635 2.5262 2.2502 2.53438 2.03422 3.0672 2.87092 1.91168 1.56765 1.6359 3.56819 2.56472 0.890639 0.659782 0.400273 0.18223 0.0296664 0.00684812 0.00336976 0.00262232 0.00101549 0.000371376 0.000218346 3.40086e-05 1.49607e-05 8.71951e-06 3.98806e-06 1.17281e-06 1.03919e-06 8.17e-08
threshold=-0.29139086065257486 -1.1830671002948432 1.8189185444542975 -0.40086943721721052 0.82518490126067234 -0.86289298915222956 -0.38937168712827924 -1.0714827220951537 -0.12551120150706674 -0.085737605000150471 -1.2956725745816888 -1.0764507284482925 -0.38756352082690676 -1.0086500327987811 0.18269584900024877 -0.57232684616863716 -1.3338494490429802 -0.36912078531322007 -0.56291752697551123 -0.69857524613911515 -0.79318723736030561 -0.81180978924783986 0.57675149046226626 -0.71617670622110541 -0.13478556826657365 -1.0794712481937749 -0.13478556826657365 -0.33869246888446686 1.3923262613552085 0.39945936670473309
decision_type=2 2 2 2 2 2 2 2 2 2 2 2 2 2 2 2 2 2 2 2 2 2 2 2 2 2 2 2 2 2
left_child=1 15 3 4 5 -3 13 -2 9 10 -5 14 -8 -7 -11 -1 -15 -9 -10 -18 -21 -20 23 -19 -23 26 -25 -27 29 -29
right_child=7 2 -4 8 -6 6 12 17 18 11 -12 -13 -14 16 -16 -17 19 22 21 20 -22 24 -24 25 -26 27 -28 28 -30 -31
leaf_value=-0.10975008392443918 -0.13297677559062202 -0.096496961285259128 0.099866036429637678 -0.14920956274871025 -0.099413472266945802 0.025843645700491288 -0.097545228667546738 0.11300632395969548 0.1120807352287962 0.068793387165508507 0.047689157586868564 -0.055456336500019014 0.010123460065066611 0.13387186098321702 0.13985878737063165 -0.065073551048702369 0.11344711624541487 0.10218060499414178 0.10555265541216681 0.10851050137747505 0.10242457472305816 0.10248802123297883 0.10324562882415321 0.10136657762943174 0.10158283232749186 0.1014104717007127 0.10186767713649775 0.10120361118201049 0.10136568167406904 0.10115397659696282
leaf_weight=2.0361061394214635 0.3677629530429839 3.0905636623501769 2.0259021408855906 1.6909756325185301 3.8973308177664867 1.2724689915776246 1.6410894785076382 0.6132972016930579 0.72461962699890126 2.0780742568895256 2.0196133162826335 1.6792117161676254 1.4445712249726126 0.62125774286687341 1.2812347495928404 1.6551368087530161 0.65426434762775842 0.50365011673420657 0.5292933341115712 0.54479095246642761 0.55194344185292876 0.4066302329301833 0.79315961152315129 0.30495834350585938 0.33139484934508179 0.27110178675502616 0.33143501915037665 0.42067456059157793 0.29478995222598303 1.5667156819254158
leaf_count=27 2 16 26 11 33 12 14 10 10 28 33 24 30 7 22 16 8 28 13 12 29 21 35 24 23 21 20 36 23 139
internal_value=0 -0.0122149 -0.00141341 -0.00980212 -0.0382852 -0.0140271 0.0238427 0.0872162 0.026576 0.00834721 -0.0420408 0.0454552 -0.0471395 0.0839368 0.0958976 -0.0897173 0.115098 0.103095 0.106641 0.108437 0.105448 0.103531 0.10174 0.101417 0.102082 0.101296 0.101628 0.101214 0.10119 0.101164
internal_weight=0 30.1765 26.4852 24.4593 13.7183 9.82095 6.73039 5.46755 10.741 8.74911 3.71059 5.03852 3.08566 3.64473 3.35931 3.69124 2.37226 5.09978 1.99194 1.751 1.09673 1.26732 4.48649 3.69333 0.738025 3.18968 0.636393 2.55328 2.28218 1.98739
internal_count=753 415 372 346 161 128 112 338 185 118 44 74 44 68 50 43 56 336 67 49 41 57 326 291 44 263 44 219 198 175
shrinkage=0.1


Tree=26
num_leaves=31
num_cat=0
split_feature=14 3 5 14 10 5 5 5 10 9 5 5 1 12 5 8 10 15 10 11 3 10 3 3 3 1 5 1 11 3
split_gain=4.17338 3.3608 2.11258 2.85837 2.03104 1.59722 1.13613 2.13121 2.79982 1.92553 1.27539 2.30051 1.23664 1.00986 0.811851 0.394993 0.84169 0.250088 0.179834 0.168645 0.0192739 0.0130264 0.00315099 0.00115032 0.000338507 0.000178199 0.000152441 9.75235e-05 4.36781e-05 2.8238e-05
threshold=0.39945936670473309 -1.0667890552974686 1.6827531394165212 0.57361675793279021 0.55812962979924396 1.5678159396316445 -0.77775432264491351 -0.86289298915222956 0.17743606077149984 0.89224410797111064 -0.27117925692638289 0.79305407441506814 1.7361074075214953 -0.62025039320093545 1.6827531394165212 -1.2459705287004519 -0.61591771285120334 -0.69439383547610956 -0.58395107728398821 -0.74644470904163374 -0.71795492030534436 -0.77575089068727909 -0.60167687530796954 -0.078425672819783118 -0.60167687530796954 0.24550694273105786 -0.81180978924783986 1.0000000180025095e-35 1.6682967091483494 1.0000000180025095e-35
decision_type=2 2 2 2 2 2 2 2 2 2 2 2 2 2 2 2 2 2 2 2 2 2 2 2 2 2 2 2 2 2
left_child=1 13 15 -4 5 6 7 -3 12 10 -8 27 20 18 -7 16 -2 -17 -1 -19 -9 -21 -6 -23 -22 -5 -24 -12 -25 -26
right_child=2 4 3 25 22 14 9 8 -10 -11 11 -13 -14 -15 -16 17 -18 19 -20 21 24 23 26 28 29 -27 -28 -29 -30 -31
leaf_value=-0.083660157923151318 -0.094387394286092635 -0.049831138557559183 -0.16955962723711465 0.10162315613927231 0.11085237951985344 0.1093048240723426 -0.13281297506582576 0.11945000580815257 -0.080156781126618448 0.064024758536932458 0.10167362409538645 -0.14089945380767341 -0.0115512224979833 -0.022593035343748458 0.0032008881678556103 0.15492618425856478 0.10475327099746255 0.044125292303422242 -0.12366934988496092 0.11739695389438927 0.10565828073635596 0.10658771554147228 0.10420909165028054 0.10132948212049885 0.10300399361808632 0.10472384006286246 0.10153925118057319 0.10390382943690818 0.10275339733472151 0.10179257977060037
leaf_weight=2.2611787244677544 0.31665922608226538 4.5046396441757723 0.77474745176732518 0.45069283898919821 0.87655490264296532 1.6521082846447819 2.4552939068526025 1.8785346560180225 1.4095772989094255 1.0524551942944524 0.4251465853303682 0.76210265979170799 1.0597073491662738 2.3457994461059597 1.2797116320580242 0.96234721597284023 0.6436576461419462 0.50590447802096594 2.2327852956950665 0.77893198933452401 0.58244782593101641 0.5726712709292775 0.33332141116261482 1.75381411332637 0.43954863678663125 0.31482101138681173 0.59672304056584724 0.3639020211994648 0.24559122510254394 0.34224002249538898
leaf_count=27 4 31 7 36 13 35 21 21 14 22 30 5 11 21 34 7 38 18 22 17 14 16 12 152 20 10 45 16 12 22
internal_value=0 -0.0152616 0.0699181 -0.0341473 0.0054194 -0.00461516 -0.0175908 0.00159981 0.0421593 -0.0563471 -0.0879677 -0.0169828 0.0822324 -0.0757769 0.0629915 0.0976516 0.0390877 0.109321 -0.103538 0.0979425 0.11288 0.106067 0.106551 0.102636 0.103833 0.102898 0.102496 0.102702 0.101504 0.102474
internal_weight=0 26.8538 7.31984 1.54026 20.014 18.2074 15.2756 10.2167 5.71206 5.0589 4.00645 1.55115 4.30248 6.83976 2.93182 5.77958 0.960317 4.81926 4.49396 3.85691 3.24277 3.35101 1.8066 2.57208 1.36424 0.765514 0.930044 0.789049 1.99941 0.781789
internal_count=753 436 317 53 366 296 227 133 102 94 72 51 88 70 69 264 42 222 49 215 77 197 70 180 56 46 57 46 164 42
shrinkage=0.1


Tree=27
num_leaves=31
num_cat=0
split_feature=15 3 1 10 12 14 0 14 5 8 11 1 14 10 10 1 5 3 3 3 1 15 10 1 8 14 10 8 11 11
split_gain=3.69331 2.10419 1.94893 2.08681 2.10042 2.94076 1.89613 1.87278 1.6382 1.30105 1.47008 1.47659 1.24417 0.624083 0.187087 0.171219 0.0714148 0.00458838 0.00269504 0.001914 0.000127245 7.96538e-05 1.92081e-05 5.24985e-06 2.32656e-06 8.7161e-07 8.73947e-07 6.38986e-07 9.56259e-08 1.17822e-08
threshold=-0.29139086065257486 -1.1830671002948432 1.8189185444542975 -0.40086943721721052 1.0000000180025095e-35 -1.3377852092967217 0.58741985344300496 0.040714819576204243 -1.0714827220951537 0.97639939216730498 -0.12551120150706674 0.24550694273105786 -1.3297169007765519 -0.84549627737938493 -0.57232684616863716 0.99080717512627658 -0.86289298915222956 -0.36912078531322007 -0.81485329113648997 -0.56291752697551123 0.57675149046226626 -0.60581105598591234 -0.70891156177401105 -1.0794712481937749 -0.13478556826657365 0.44727885378769117 0.47966606977062493 1.0000000180025095e-35 0.97837058966549706 -0.40148164930020763
decision_type=2 2 2 2 2 2 2 2 2 2 2 2 2 2 2 2 2 2 2 2 2 2 2 2 2 2 2 2 2 2
left_child=1 14 3 4 5 -3 13 -6 -2 10 11 12 -5 -7 -1 -13 -15 -10 -18 -12 22 -21 -19 24 -24 26 27 -25 29 -27
right_child=8 2 -4 9 7 6 -8 -9 17 -11 19 15 -14 16 -16 -17 18 20 -20 21 -22 -23 23 25 -26 28 -28 -29 -30 -31
leaf_value=-0.10826329367553567 -0.12751015323388604 -0.074414340355748121 0.09695177223697099 -0.10389393507784161 -0.025989471216385882 0.023879490092551442 -0.033664367555020523 -0.15496177803565817 0.11132769143698494 0.12034490975899344 0.11050691864948579 0.025844036872471332 0.0032575316227942846 0.14456549803056337 -0.060178399835669152 0.07506102615761838 0.11193709912209004 0.10179988449088767 0.1024854689575183 0.10395748842472458 0.10270618865583425 0.10203341610016198 0.10113958223016689 0.10130115472518537 0.1015584313748341 0.10096625902299797 0.1009574553682507 0.10106026326554554 0.10101666253295721 0.10094220111283068
leaf_weight=1.7625950910151007 0.33326876163482655 3.6133292037993661 1.8876296384260047 1.8802053555846239 2.2574716554954639 0.89802724961191316 1.9069607080891726 2.246097787283361 0.53801368549466122 1.2689769435673941 0.52546417154371738 1.4210202489048245 2.5578158395364881 0.90758711844682638 1.4958223700523401 1.4064214956015346 0.63640407659113341 0.42710389755666289 0.5735929813236087 0.3812830476090312 0.66224205866456021 0.49383705295621882 0.25436911545693874 0.22502930648624841 0.27706731017679054 0.26501178555190641 0.28044465836137533 0.21563346032053232 0.24467149656265963 0.8780102888122191
leaf_count=27 2 32 26 16 28 11 25 17 10 36 8 21 37 5 16 21 10 29 33 14 35 32 24 19 20 28 30 21 25 95
internal_value=0 -0.0106285 -0.000725541 -0.0087509 -0.035058 -0.00590538 0.0443824 -0.0903128 0.0860194 0.0257765 0.0119287 -0.00615479 -0.0421381 0.0937363 -0.0861892 0.0503255 0.123361 0.102694 0.107457 0.105736 0.101449 0.102872 0.101178 0.101077 0.101358 0.101006 0.101095 0.101183 0.10096 0.100948
internal_weight=0 28.1205 24.8621 22.9745 13.0395 8.5359 4.92257 4.50357 4.60087 9.93502 8.66605 7.26546 4.43802 3.01561 3.25842 2.82744 2.11758 4.2676 1.21 1.40058 3.72958 0.87512 3.06734 2.64024 0.531436 2.1088 0.721107 0.440663 1.38769 1.14302
internal_count=753 415 372 346 161 116 84 45 338 185 149 95 53 59 43 42 48 336 43 54 326 46 291 262 44 218 70 40 148 123
shrinkage=0.1


Tree=28
num_leaves=31
num_cat=0
split_feature=14 3 5 10 5 5 9 5 1 5 14 9 1 10 8 3 15 3 9 15 10 3 3 5 5 3 10 3 1 15
split_gain=3.42459 2.64845 1.78089 1.67683 1.51678 1.36096 1.77461 1.3212 1.16588 2.66373 5.23758 1.64634 2.1117 0.950266 0.326869 0.571121 0.205721 0.190489 0.0434935 0.0237875 0.00944911 0.00578389 0.00215344 0.000277388 0.000192576 0.000178619 0.000102697 9.87549e-05 1.79702e-05 4.12429e-06
threshold=0.39945936670473309 -1.1830671002948432 1.6827531394165212 0.55812962979924396 1.6997808727179844 1.5678159396316445 -0.38756352082690676 0.79305407441506814 -0.085737605000150471 -0.86289298915222956 -1.3297169007765519 0.25234029357210191 0.74237376432787039 -0.40086943721721052 -1.2459705287004519 -0.64043622364042785 -0.69439383547610956 -0.69857524613911515 0.73226815437135839 -0.70477716494016196 -0.78156300624495456 -0.69857524613911515 -0.75671426863780256 -0.81180978924783986 -0.81180978924783986 -0.21408339198338702 -0.7379721395623885 0.27040846217234127 0.82518490126067234 -0.015908150809434002
decision_type=2 2 2 2 2 2 2 2 2 2 2 2 2 2 2 2 2 2 2 2 2 2 2 2 2 2 2 2 2 2
left_child=1 26 14 5 -4 7 -7 8 9 -3 -11 12 -10 -13 15 -2 -16 -18 22 -8 -19 -12 -5 -22 -24 -23 -1 -17 -25 -27
right_child=2 3 4 18 -6 6 19 -9 11 10 21 13 -14 -15 16 27 17 20 -20 -21 23 25 24 28 -26 29 -28 -29 -30 -31
leaf_value=-0.10770049845643988 -0.066314870806147383 -0.12050435777497162 -0.11212676576836592 0.11192226936759751 0.10291607346078124 -0.030858215680184226 0.12972359770324046 -0.11707452715086925 0.050650173445883288 -0.12994411586401927 0.11244454211747351 0.015961842138328453 -0.067125467384761897 0.12672617059934152 0.1500986449276614 0.10372094207849421 0.034024723366961683 0.11457666538408227 0.070650780833104443 0.1062823820217175 0.10420822069050595 0.10390184100808755 0.10479475739792335 0.10099452996663663 0.10145077149943674 0.10157280388507715 -0.10894702871142103 0.10092769925192301 0.10192608366167129 0.10108784572275727
leaf_weight=1.4148939847946169 0.31974690407514572 2.7700707539916039 0.87727346736937739 0.42105396836996067 0.52386309672147036 1.5270152678713205 0.73026680760085572 1.335287008434533 2.5301117906346882 1.5977769475430252 1.0979185886681082 1.6290414370596411 3.8222184590995312 1.4766113902442155 0.88481326960027162 0.32859328947961319 0.43363088555634011 0.7758793402463201 0.49329229164868582 1.0631084134802211 0.35085702501237426 0.41685026139020942 0.3008745228871702 1.4875637013465164 0.40273501817136914 0.30861702561378501 1.2402833960950435 0.20587556157261133 0.24056830443441857 0.40614736080171121
leaf_count=23 2 15 15 5 38 25 10 15 33 11 14 24 37 27 7 17 7 17 19 37 14 14 11 162 36 22 18 23 15 40
internal_value=0 -0.0138655 0.0679743 -0.00263822 -0.0317256 -0.0102976 0.0483683 -0.0214986 -0.0135498 -0.0458147 0.00824297 0.00895648 -0.0202158 0.0686258 0.09576 0.0394006 0.107296 0.0957793 0.0954072 0.115828 0.105159 0.107274 0.106266 0.101645 0.102881 0.102257 -0.108283 0.102645 0.101124 0.101297
internal_weight=0 24.9842 6.42866 22.329 1.40114 20.711 3.32039 17.3907 16.0554 6.59738 3.82731 9.45798 6.35233 3.10565 5.02753 0.854216 4.17331 3.2885 1.61796 1.79338 2.85487 2.22953 1.12466 2.07899 0.70361 1.13161 2.65518 0.534469 1.72813 0.714764
internal_count=753 436 317 395 53 324 72 252 237 116 101 121 70 51 264 42 222 215 71 47 208 90 52 191 47 76 41 40 177 62
shrinkage=0.1


Tree=29
num_leaves=31
num_cat=0
split_feature=14 10 1 5 5 8 11 11 5 7 14 15 9 13 3 5 3 8 3 10 3 3 5 3 3 3 1 1 11 1
split_gain=3.05795 1.70225 2.16775 2.35123 2.01769 1.7921 1.63295 1.53557 1.94072 1.13336 1.47626 0.931499 0.865751 0.796604 0.763569 1.50946 0.668045 0.233148 0.041584 0.00669569 0.00275323 0.00062983 0.000240438 5.17565e-05 3.46217e-05 1.91396e-05 1.65264e-05 1.50731e-05 2.00719e-06 8.2605e-07
threshold=0.59467307529030677 -0.72344185066819977 2.1501630921855059 1.5678159396316445 -0.77775432264491351 0.34143655763366004 -0.67745209709334853 -0.40148164930020763 -0.86289298915222956 -0.55133917080857653 -1.1691378824239027 -0.70088341639114227 -0.38756352082690676 1.0000000180025095e-35 -0.75671426863780256 -0.27117925692638289 -0.69857524613911515 -0.92848911143362967 -1.0086500327987811 -0.78156300624495456 -0.67919557197288605 -0.65981589780665695 -0.81180978924783986 -0.078425672819783118 -0.020286650321095737 -0.17532404365092877 0.32831807966385995 0.82518490126067234 1.3923262613552085 -1.0794712481937749
decision_type=2 2 2 2 2 2 2 2 2 2 2 2 2 2 2 2 2 2 2 2 2 2 2 2 2 2 2 2 2 2
left_child=1 9 3 4 6 14 11 -8 -9 10 -1 -3 -11 -7 -6 -16 -2 -10 -5 -18 -19 -20 -21 -24 -22 -23 -17 28 29 -25
right_child=16 2 -4 18 5 13 7 8 17 12 -12 -13 -14 -15 15 26 19 20 21 22 24 25 23 27 -26 -27 -28 -29 -30 -31
leaf_value=-0.052764113369069582 -0.036581771621201346 0.12658467617307395 0.15432859433130322 0.1427648634699725 -0.11843189542981654 -0.040783438494418844 -0.066412489039769471 -0.095834186108554389 0.033007508928365507 -0.13156436207079075 0.064257193897311118 0.012508517522868601 -0.037766166325269745 0.081502128697063511 -0.12115688472539202 0.10107072398759043 0.11169135209952959 0.11080721298230729 0.10616453932185671 0.10473602922544023 0.10291788200057786 0.10237675581758643 0.10254629099473273 0.10099714979816379 0.10143065033506847 0.10136607293233463 0.102197331080534 0.1017477993662215 0.10114548953213194 0.10079322658246853
leaf_weight=3.1222924664616585 0.37613761425018344 1.7418694584630432 0.96842799801379342 0.34240821748971928 3.064972959458828 1.063107855618 2.7042349781841106 0.7915689218789409 0.57728380197659879 1.9761682702228429 1.646539933979511 1.2151560629718066 1.9599783732555858 1.0677475794218481 0.70845176884904482 0.30798509391024442 0.88391972705721888 0.92917438037694222 0.61559623107314099 0.20501954760402519 0.36882885172963864 0.35921212844550598 0.23581183422356966 0.23833863157779056 0.27193340146910705 0.39167792024090797 0.2255724361166358 0.22245565336197604 0.22994979145005334 1.192680440843102
leaf_count=35 4 25 9 3 32 9 30 7 18 16 32 19 32 36 18 33 19 12 17 7 18 18 12 26 25 34 15 15 23 154
internal_value=0 -0.0089313 0.0088619 0.000449897 -0.0121814 -0.0545178 0.0195109 -0.0120324 0.0380075 -0.0451417 -0.01236 0.0797064 -0.0848582 0.0204925 -0.0916287 -0.025485 0.0895009 0.087348 0.111602 0.104283 0.10733 0.103793 0.101466 0.10115 0.102287 0.10185 0.101547 0.100975 0.100871 0.100827
internal_weight=0 26.4202 17.7152 16.7468 15.0379 6.43784 8.60005 5.64302 2.93879 8.70498 4.76883 2.95703 3.93615 2.13086 4.30698 1.24201 3.58431 2.14722 1.70889 3.20818 1.56994 1.36649 2.32426 2.11924 0.640762 0.75089 0.533558 1.88342 1.66097 1.43102
internal_count=753 493 378 369 297 143 154 110 80 115 67 44 48 45 98 66 260 73 72 256 55 69 237 230 43 52 48 218 203 180
shrinkage=0.1


Tree=30
num_leaves=31
num_cat=0
split_feature=15 3 1 12 1 11 1 9 14 0 5 3 9 3 8 7 14 3 10 3 8 1 1 10 1 8 14 10 11 14
split_gain=2.72895 1.58218 1.38917 1.48047 1.55718 2.18389 1.75438 2.07687 1.47945 1.59174 1.32792 1.10597 0.986893 1.02185 0.202283 0.119188 0.230219 0.0481042 0.00299652 0.00253646 0.00032549 0.000163501 6.56577e-05 9.44898e-06 2.35282e-06 6.26877e-07 6.13732e-07 4.20102e-07 5.47171e-08 5.44797e-08
threshold=-0.29139086065257486 -1.1830671002948432 1.8189185444542975 -1.0000000180025095e-35 -0.99666011126097309 -0.40148164930020763 -0.49979328966416076 -0.22758756722715459 0.040714819576204243 -0.58462128339325248 -1.0714827220951537 -0.77609394280403177 1.0522200615708628 -1.0667890552974686 -0.29352627689998484 -0.71330665448887387 -1.3338494490429802 -0.95051101030009388 -0.78156300624495456 -0.36912078531322007 1.0000000180025095e-35 0.82518490126067234 0.57675149046226626 -0.7001933884374979 -1.0794712481937749 -0.13478556826657365 0.27016964236932806 0.47966606977062493 1.0473632016137824 0.56023517307006954
decision_type=2 2 2 2 2 2 2 2 2 2 2 2 2 2 2 2 2 2 2 2 2 2 2 2 2 2 2 2 2 2
left_child=1 14 3 4 -3 6 -6 -8 9 -5 -2 -11 13 -9 -1 -7 -17 -15 -18 -12 -19 -20 23 -21 25 -25 27 -26 29 -28
right_child=10 2 -4 8 5 15 7 12 -10 11 19 -13 -14 17 -16 16 18 20 21 22 -22 -23 -24 24 26 -27 28 -29 -30 -31
leaf_value=-0.05170544528243326 -0.12208696370554324 -0.068467598283900033 0.087449171388776489 -0.076208955652239743 0.10961444482212918 0.1290817969770503 -0.070768501945363022 -0.0062161629193792168 -0.10315265815858535 -0.030352001601144974 0.10915091715423493 0.10944236778982813 -0.034043959821925561 0.13972147537869137 -0.10699565803445994 0.023851055041954995 0.11258816180444842 0.10635077971538423 0.10166996327132019 0.10138003663135253 0.1026378236392689 0.10473603937564163 0.10214254904512315 0.10090134792049908 0.10093263285296228 0.10115350256723604 0.1007652643552932 0.10072556090982143 0.10078004432746109 0.100703387462525
leaf_weight=1.2200942151248457 0.28679057955741916 2.0804864261299469 1.6730474838986982 1.8830845551565287 1.2911384091712603 1.0511141773313286 3.691500084474689 1.0989701300859516 2.6889261808246374 1.0119215063750742 0.45705483853817064 1.2840490168891805 1.4573423070833085 0.65850943699479747 1.4458264969289363 0.43960168678313483 0.60847059916704882 0.47632134007288096 0.39676006184889878 0.3475464233197284 0.46815465902909636 0.30966662568971515 0.51935639139264811 0.18876206455752254 0.28550572181120193 0.20639895088970783 0.17143267206847645 0.14916044985875487 0.14279927639290679 0.83706597564741969
leaf_count=17 2 28 26 21 20 29 36 9 36 7 10 34 21 5 26 7 9 15 33 31 25 11 35 23 33 20 23 21 19 121
internal_value=0 -0.00883636 -0.00023052 -0.00725063 0.0113739 0.0252771 0.00159221 -0.0161731 -0.0452917 -0.0080622 0.0843247 0.0478297 0.032282 0.0680559 -0.0816914 0.102453 0.0864996 0.118975 0.107444 0.102236 0.10451 0.103014 0.101126 0.100899 0.100815 0.101033 0.10076 0.100862 0.100722 0.100714
internal_weight=0 25.235 22.5691 20.896 14.028 11.9475 9.14194 7.8508 6.86798 4.17906 3.59187 2.29597 4.1593 2.70196 2.66592 2.80561 1.7545 1.60299 1.3149 3.30508 0.944476 0.706427 2.84803 2.32867 1.98113 0.395161 1.58596 0.434666 1.1513 1.0085
internal_count=753 415 372 346 248 220 131 111 98 62 338 41 75 54 43 89 60 45 53 336 40 44 326 291 260 43 217 54 163 144
shrinkage=0.1


Tree=31
num_leaves=31
num_cat=0
split_feature=14 3 10 1 12 14 9 0 1 3 14 0 10 1 3 11 15 5 3 10 3 15 5 3 5 3 14 1 15 15
split_gain=2.50712 1.39856 1.38516 1.12283 1.05511 1.63944 1.59891 1.25355 1.19153 1.16769 1.08118 0.987849 0.926696 0.709596 0.560638 0.36769 0.21111 0.142688 0.0651555 0.00382435 0.000702467 0.000440361 0.000180136 0.000123269 8.83567e-05 2.77032e-05 1.43475e-05 8.00716e-06 3.98307e-06 3.24857e-06
threshold=0.59467307529030677 -1.1830671002948432 0.55812962979924396 1.8189185444542975 -1.0000000180025095e-35 0.040714819576204243 1.5321479223701193 -1.170641851811381 0.99080717512627658 -0.69857524613911515 -0.77300361288483055 -0.58462128339325248 -0.87455685516776227 0.079884668865453687 -0.69857524613911515 -0.74644470904163374 -0.70477716494016196 -0.86289298915222956 -0.89237198780140647 -0.78156300624495456 -0.60167687530796954 -0.70283029066565217 -0.81180978924783986 -0.56291752697551123 -0.81180978924783986 -0.078425672819783118 -0.43551217112650537 0.82518490126067234 -0.33746688514930751 -0.1323961282342721
decision_type=2 2 2 2 2 2 2 2 2 2 2 2 2 2 2 2 2 2 2 2 2 2 2 2 2 2 2 2 2 2
left_child=1 16 3 4 6 8 7 15 11 10 13 -6 -11 -9 -2 -3 -1 -14 -4 -16 -20 -19 -21 -23 -22 -24 -25 -27 -26 -28
right_child=14 2 18 -5 5 -7 -8 9 -10 12 -12 -13 17 -15 19 -17 -18 21 20 22 24 23 25 26 28 27 29 -29 -30 -31
leaf_value=-0.10566744315240878 -0.027829747458228988 0.035648414509025166 0.047734384990794736 0.079751390842373204 -0.026869607400615628 -0.11667295575083109 -0.11148906859575605 -0.084593914880353185 -0.087457812596187734 -0.082819801124962567 0.041891826760114909 0.094218937082131499 0.031603065892740111 -0.012325467929382598 0.1096039503962617 0.12420251614160172 -0.047316724054357023 0.10603405051426025 0.10666246709131387 0.10415515015173854 0.10336158547548679 0.10377458768634246 0.10207217788262997 0.10199354288547167 0.10128857295406715 0.10071950575411869 0.1014062881742671 0.10142483216448472 0.10070029271631627 0.10085868865756636
leaf_weight=1.3486190307885411 0.3685947842895988 0.79864695947617281 0.24953310936689366 1.4058566624298681 1.4643849837593732 2.1783201335929334 1.1109233363531537 2.2905265651643276 1.3047856260091064 0.3674721233546826 2.1317952200770467 1.2478187372907972 0.33795737661422198 3.3396416157484055 0.7674360834062105 1.1355761038139558 1.1476961076259673 0.40928224613890951 0.51316479593515385 0.19397878553718384 0.23589062644168723 0.35530439764262123 0.19319736165925894 0.3756327857263474 0.22098090266808856 1.3699063681997334 0.23139606928453726 0.18238087836652983 0.24019242543727082 0.20370350126170644
leaf_count=29 4 16 4 21 23 31 19 21 11 6 24 31 7 28 19 32 14 12 12 7 12 13 12 25 20 203 20 15 36 26
internal_value=0 -0.00788247 0.000114951 -0.00652776 -0.012818 -0.0468167 0.00327571 0.0139207 -0.0089353 -0.000277227 -0.018761 0.0288403 0.0626278 -0.0417265 0.0878735 0.0876382 -0.0788403 0.0905631 0.0942613 0.103629 0.103855 0.103212 0.101264 0.102221 0.101787 0.100943 0.101541 0.100802 0.100982 0.10115
internal_weight=0 24.6451 22.1488 20.689 19.2832 6.19531 13.0879 11.9769 4.01699 10.0427 7.76196 2.7122 2.28075 5.63017 3.07549 1.93422 2.49632 1.91328 1.45976 2.7069 1.21023 1.57532 1.93946 1.16604 0.697064 1.74548 0.810732 1.55229 0.461173 0.4351
